def score(input):
    if input[0] <= 119.82100296020508:
        if input[0] <= 89.7462043762207:
            if input[1] <= 89.56784439086914:
                if input[0] <= 78.97771835327148:
                    if input[1] <= 88.95643997192383:
                        if input[0] <= 72.6258659362793:
                            if input[1] <= 88.53811645507812:
                                if input[1] <= 81.96134948730469:
                                    var0 = 40410.06932988465
                                else:
                                    var0 = 39925.23616057003
                            else:
                                if input[0] <= 13.37037467956543:
                                    var0 = 37965.55531426184
                                else:
                                    var0 = 42302.51289009428
                        else:
                            if input[1] <= 88.2994499206543:
                                if input[0] <= 76.86613464355469:
                                    var0 = 39096.39538569325
                                else:
                                    var0 = 40756.292264610405
                            else:
                                if input[0] <= 75.72450256347656:
                                    var0 = 39887.83292808648
                                else:
                                    var0 = 24793.430736082642
                    else:
                        if input[0] <= 75.09774398803711:
                            if input[1] <= 88.97517013549805:
                                if input[0] <= 60.90041923522949:
                                    var0 = 35283.26298057113
                                else:
                                    var0 = 34866.66246526893
                            else:
                                if input[0] <= 48.01436424255371:
                                    var0 = 37980.900402088344
                                else:
                                    var0 = 40427.64787898385
                        else:
                            if input[0] <= 76.77108764648438:
                                if input[1] <= 89.06304168701172:
                                    var0 = 30247.727888604273
                                else:
                                    var0 = 33905.27354966991
                            else:
                                if input[0] <= 78.19852447509766:
                                    var0 = 23544.450834225117
                                else:
                                    var0 = 30667.656313922922
                else:
                    if input[1] <= 85.04241561889648:
                        if input[1] <= 83.40521240234375:
                            if input[0] <= 86.63890838623047:
                                if input[1] <= 82.91777420043945:
                                    var0 = 39322.91185504309
                                else:
                                    var0 = 41582.03084176814
                            else:
                                if input[1] <= 82.39762878417969:
                                    var0 = 40698.81131354094
                                else:
                                    var0 = 35079.05465850805
                        else:
                            if input[0] <= 86.26266479492188:
                                if input[1] <= 84.62947845458984:
                                    var0 = 37270.18777045752
                                else:
                                    var0 = 41086.3790886147
                            else:
                                if input[1] <= 84.23955154418945:
                                    var0 = 25526.946455605317
                                else:
                                    var0 = 31418.150789873685
                    else:
                        if input[1] <= 86.07098388671875:
                            if input[0] <= 83.45221710205078:
                                if input[0] <= 82.95732498168945:
                                    var0 = 39718.848668485174
                                else:
                                    var0 = 44105.42293133421
                            else:
                                if input[1] <= 85.80744934082031:
                                    var0 = 26934.7680570819
                                else:
                                    var0 = 32116.51039144036
                        else:
                            if input[0] <= 80.11479568481445:
                                if input[1] <= 88.02547073364258:
                                    var0 = 23196.066186410935
                                else:
                                    var0 = 25758.39163763544
                            else:
                                if input[1] <= 86.1638298034668:
                                    var0 = 22027.49595856033
                                else:
                                    var0 = 29203.723190299774
            else:
                if input[0] <= 62.4271125793457:
                    if input[1] <= 99.9616928100586:
                        if input[0] <= 54.494266510009766:
                            if input[0] <= 38.802425384521484:
                                if input[1] <= 92.1495246887207:
                                    var0 = 41947.40745894806
                                else:
                                    var0 = 38946.52243267664
                            else:
                                if input[1] <= 92.96928024291992:
                                    var0 = 40063.05892708291
                                else:
                                    var0 = 41274.674810193384
                        else:
                            if input[1] <= 95.25634384155273:
                                if input[0] <= 61.85363960266113:
                                    var0 = 39602.511224602276
                                else:
                                    var0 = 34745.12901697378
                            else:
                                if input[0] <= 55.63071060180664:
                                    var0 = 33355.83574254329
                                else:
                                    var0 = 27144.776376117446
                    else:
                        if input[0] <= 47.61077880859375:
                            if input[0] <= 47.0621452331543:
                                if input[0] <= 41.002357482910156:
                                    var0 = 40615.19090509474
                                else:
                                    var0 = 36708.204708560384
                            else:
                                var0 = 44813.25857393741
                        else:
                            if input[0] <= 61.70979881286621:
                                if input[0] <= 58.42812538146973:
                                    var0 = 28009.38785023468
                                else:
                                    var0 = 23382.06687551423
                            else:
                                var0 = 33117.49744835239
                else:
                    if input[0] <= 79.21768951416016:
                        if input[1] <= 92.8335189819336:
                            if input[0] <= 69.41502380371094:
                                if input[0] <= 67.71463012695312:
                                    var0 = 39721.06686847674
                                else:
                                    var0 = 35656.35995558156
                            else:
                                if input[0] <= 70.96645736694336:
                                    var0 = 25315.04521172308
                                else:
                                    var0 = 29754.44577802204
                        else:
                            if input[0] <= 68.30755615234375:
                                if input[0] <= 63.16465377807617:
                                    var0 = 29995.042655829107
                                else:
                                    var0 = 27259.803955612242
                            else:
                                if input[1] <= 98.8981819152832:
                                    var0 = 30207.76410960571
                                else:
                                    var0 = 28117.893418811276
                    else:
                        if input[1] <= 94.75620651245117:
                            if input[0] <= 80.55400085449219:
                                if input[1] <= 90.19432067871094:
                                    var0 = 28957.904569211183
                                else:
                                    var0 = 25108.044009558864
                            else:
                                if input[0] <= 81.61262130737305:
                                    var0 = 30349.63246723561
                                else:
                                    var0 = 26903.280496972213
                        else:
                            if input[0] <= 82.04149627685547:
                                if input[1] <= 98.72663879394531:
                                    var0 = 25760.56089102013
                                else:
                                    var0 = 30440.99263703884
                            else:
                                if input[1] <= 96.95354461669922:
                                    var0 = 31265.711150544135
                                else:
                                    var0 = 28965.09172655899
        else:
            if input[1] <= 78.3482780456543:
                if input[0] <= 102.59257888793945:
                    if input[0] <= 89.90482330322266:
                        var0 = 35313.71047971702
                    else:
                        if input[1] <= 77.08220672607422:
                            if input[1] <= 76.98136520385742:
                                if input[1] <= 70.06634521484375:
                                    var0 = 39409.438753744296
                                else:
                                    var0 = 40300.06571078236
                            else:
                                if input[1] <= 77.00743103027344:
                                    var0 = 44614.3421269882
                                else:
                                    var0 = 43181.67504984613
                        else:
                            if input[0] <= 101.32025527954102:
                                if input[1] <= 77.52259826660156:
                                    var0 = 37455.33259040555
                                else:
                                    var0 = 40836.944500631456
                            else:
                                var0 = 29186.350215356462
                else:
                    if input[1] <= 73.45180130004883:
                        if input[1] <= 72.23160934448242:
                            if input[1] <= 60.563446044921875:
                                if input[0] <= 117.76823043823242:
                                    var0 = 41946.52078657353
                                else:
                                    var0 = 44700.79502155894
                            else:
                                if input[0] <= 110.33395004272461:
                                    var0 = 40075.93595530799
                                else:
                                    var0 = 38770.080194357935
                        else:
                            if input[0] <= 111.46740341186523:
                                if input[0] <= 105.4259033203125:
                                    var0 = 38154.055303738416
                                else:
                                    var0 = 42021.794394283075
                            else:
                                if input[1] <= 72.62367248535156:
                                    var0 = 34427.74298102829
                                else:
                                    var0 = 29433.968290078916
                    else:
                        if input[0] <= 110.4483642578125:
                            if input[1] <= 75.38128662109375:
                                if input[0] <= 107.40364074707031:
                                    var0 = 35549.74166767842
                                else:
                                    var0 = 43315.32861735667
                            else:
                                if input[1] <= 76.30395126342773:
                                    var0 = 32403.028961757667
                                else:
                                    var0 = 28751.591120237226
                        else:
                            if input[0] <= 116.31529235839844:
                                if input[1] <= 76.9223747253418:
                                    var0 = 25728.54659481773
                                else:
                                    var0 = 28607.281399492636
                            else:
                                if input[1] <= 74.67404174804688:
                                    var0 = 25775.528370268665
                                else:
                                    var0 = 30088.502020983957
            else:
                if input[1] <= 96.52006912231445:
                    if input[1] <= 91.5999641418457:
                        if input[0] <= 95.27529907226562:
                            if input[1] <= 81.4265251159668:
                                if input[1] <= 80.58365631103516:
                                    var0 = 39318.30134347928
                                else:
                                    var0 = 34185.815414985234
                            else:
                                if input[1] <= 82.64762496948242:
                                    var0 = 32334.454946492107
                                else:
                                    var0 = 28396.595186645445
                        else:
                            if input[1] <= 87.80696868896484:
                                if input[0] <= 100.27869415283203:
                                    var0 = 29215.861800399627
                                else:
                                    var0 = 27984.7945461364
                            else:
                                if input[1] <= 88.03477096557617:
                                    var0 = 31615.690842072745
                                else:
                                    var0 = 28810.030922427028
                    else:
                        if input[0] <= 107.42105102539062:
                            if input[1] <= 96.00851058959961:
                                if input[1] <= 95.85801696777344:
                                    var0 = 29055.90648946316
                                else:
                                    var0 = 23263.00632987221
                            else:
                                if input[0] <= 99.43753433227539:
                                    var0 = 33479.434397037956
                                else:
                                    var0 = 30526.878614574194
                        else:
                            if input[0] <= 115.07361602783203:
                                if input[1] <= 94.00225448608398:
                                    var0 = 26329.689321844297
                                else:
                                    var0 = 17964.73497713387
                            else:
                                if input[0] <= 118.50774002075195:
                                    var0 = 18255.639703867048
                                else:
                                    var0 = 16038.839521793267
                else:
                    if input[0] <= 95.8863754272461:
                        if input[1] <= 99.40055847167969:
                            if input[1] <= 99.07444763183594:
                                if input[1] <= 97.07695388793945:
                                    var0 = 25003.006574584735
                                else:
                                    var0 = 27856.5003764329
                            else:
                                if input[1] <= 99.28812408447266:
                                    var0 = 24357.70915139393
                                else:
                                    var0 = 23750.57637353851
                        else:
                            if input[0] <= 95.57300186157227:
                                if input[0] <= 95.12480163574219:
                                    var0 = 28913.559136898915
                                else:
                                    var0 = 26557.676471114315
                            else:
                                var0 = 34183.041333997004
                    else:
                        if input[1] <= 98.62680435180664:
                            if input[0] <= 103.64628601074219:
                                if input[0] <= 101.5014533996582:
                                    var0 = 25879.854682624988
                                else:
                                    var0 = 32133.861697804106
                            else:
                                if input[0] <= 112.07169723510742:
                                    var0 = 19229.215571171564
                                else:
                                    var0 = 17708.555657489476
                        else:
                            if input[0] <= 118.15623474121094:
                                if input[0] <= 113.98067092895508:
                                    var0 = 17993.20393842167
                                else:
                                    var0 = 16708.243805052745
                            else:
                                if input[0] <= 118.40277099609375:
                                    var0 = 21440.35869088008
                                else:
                                    var0 = 19576.789448607175
    else:
        if input[1] <= 84.38128280639648:
            if input[0] <= 158.38184356689453:
                if input[1] <= 76.47187805175781:
                    if input[1] <= 67.00303268432617:
                        if input[0] <= 129.99051666259766:
                            if input[1] <= 66.9233169555664:
                                if input[1] <= 63.59803581237793:
                                    var0 = 37113.29808047464
                                else:
                                    var0 = 42841.86311257831
                            else:
                                if input[0] <= 125.57212448120117:
                                    var0 = 36976.729478037916
                                else:
                                    var0 = 32151.67710062685
                        else:
                            if input[1] <= 63.89208793640137:
                                if input[0] <= 143.23079681396484:
                                    var0 = 39361.0259495932
                                else:
                                    var0 = 31599.696545131344
                            else:
                                if input[0] <= 131.67257690429688:
                                    var0 = 34828.148462550205
                                else:
                                    var0 = 28190.020853140024
                    else:
                        if input[0] <= 155.9344711303711:
                            if input[0] <= 124.4579849243164:
                                if input[1] <= 69.5972671508789:
                                    var0 = 39865.7202659546
                                else:
                                    var0 = 29962.408066374486
                            else:
                                if input[1] <= 76.42412185668945:
                                    var0 = 29058.51210701518
                                else:
                                    var0 = 34492.73334501882
                        else:
                            if input[1] <= 74.63164520263672:
                                if input[0] <= 157.1590576171875:
                                    var0 = 26846.715831442332
                                else:
                                    var0 = 31069.338603332882
                            else:
                                if input[1] <= 75.35360717773438:
                                    var0 = 14747.11573701005
                                else:
                                    var0 = 18261.238612094574
                else:
                    if input[0] <= 139.06792449951172:
                        if input[0] <= 138.7191925048828:
                            if input[0] <= 137.43699645996094:
                                if input[1] <= 83.61702728271484:
                                    var0 = 28401.353126472102
                                else:
                                    var0 = 27057.656664809132
                            else:
                                if input[1] <= 82.36438751220703:
                                    var0 = 28572.049434502802
                                else:
                                    var0 = 17277.360325924376
                        else:
                            if input[1] <= 80.30157852172852:
                                if input[1] <= 79.28503799438477:
                                    var0 = 33891.93091673502
                                else:
                                    var0 = 34871.242710651764
                            else:
                                if input[0] <= 138.93804168701172:
                                    var0 = 29745.396507103873
                                else:
                                    var0 = 33377.28274185138
                    else:
                        if input[1] <= 80.11954879760742:
                            if input[0] <= 149.84915161132812:
                                if input[1] <= 79.31151962280273:
                                    var0 = 27662.030273074462
                                else:
                                    var0 = 23710.91741478842
                            else:
                                if input[1] <= 79.67000961303711:
                                    var0 = 17471.36838208157
                                else:
                                    var0 = 21662.621732563442
                        else:
                            if input[1] <= 84.31841278076172:
                                if input[1] <= 83.95610046386719:
                                    var0 = 18719.891268380034
                                else:
                                    var0 = 16949.810207526803
                            else:
                                if input[1] <= 84.35675048828125:
                                    var0 = 21342.018741487056
                                else:
                                    var0 = 19651.839277316554
            else:
                if input[1] <= 73.00078582763672:
                    if input[0] <= 191.39862060546875:
                        if input[1] <= 68.67618560791016:
                            if input[0] <= 174.23519134521484:
                                if input[1] <= 63.874755859375:
                                    var0 = 24798.73826106483
                                else:
                                    var0 = 31715.61637290309
                            else:
                                if input[0] <= 181.36258697509766:
                                    var0 = 24099.299666606836
                                else:
                                    var0 = 18527.542420511207
                        else:
                            if input[0] <= 164.0318374633789:
                                if input[0] <= 158.97525024414062:
                                    var0 = 23262.969737344396
                                else:
                                    var0 = 26039.65298487808
                            else:
                                if input[0] <= 165.53114318847656:
                                    var0 = 17657.459598796857
                                else:
                                    var0 = 19698.255326938015
                    else:
                        if input[0] <= 216.69853973388672:
                            if input[1] <= 66.29209899902344:
                                if input[0] <= 212.1328353881836:
                                    var0 = 16967.978121713484
                                else:
                                    var0 = 18876.75698724921
                            else:
                                if input[1] <= 70.55287170410156:
                                    var0 = 12670.33265402435
                                else:
                                    var0 = 8746.468221774927
                        else:
                            if input[0] <= 224.80953216552734:
                                var0 = 3759.6704565363993
                            else:
                                if input[1] <= 61.84748840332031:
                                    var0 = 8572.72372655648
                                else:
                                    var0 = 7909.074327201393
                else:
                    if input[0] <= 176.58169555664062:
                        if input[1] <= 80.11859893798828:
                            if input[0] <= 159.50183868408203:
                                if input[0] <= 159.47138214111328:
                                    var0 = 20789.02346504809
                                else:
                                    var0 = 19194.63609577408
                            else:
                                if input[1] <= 77.75809860229492:
                                    var0 = 18125.085189605066
                                else:
                                    var0 = 16293.790763961275
                        else:
                            if input[0] <= 163.15838623046875:
                                if input[1] <= 83.0191421508789:
                                    var0 = 17301.171478257624
                                else:
                                    var0 = 12077.699056272704
                            else:
                                if input[0] <= 164.76109313964844:
                                    var0 = 12334.509018660901
                                else:
                                    var0 = 10570.20045614798
                    else:
                        if input[0] <= 200.49740600585938:
                            if input[1] <= 80.2084846496582:
                                if input[0] <= 181.39737701416016:
                                    var0 = 11800.340798407855
                                else:
                                    var0 = 10389.877462138205
                            else:
                                if input[0] <= 185.50054168701172:
                                    var0 = 9870.226613812001
                                else:
                                    var0 = 6051.46580167945
                        else:
                            if input[0] <= 225.43828582763672:
                                if input[1] <= 75.56012725830078:
                                    var0 = 7627.1095736936595
                                else:
                                    var0 = 5503.944911867301
                            else:
                                if input[1] <= 82.09482955932617:
                                    var0 = 2345.662177140998
                                else:
                                    var0 = 1.0
        else:
            if input[0] <= 150.0442886352539:
                if input[1] <= 90.76178741455078:
                    if input[0] <= 128.84901428222656:
                        if input[1] <= 88.28889083862305:
                            if input[0] <= 124.18335723876953:
                                if input[1] <= 87.31009292602539:
                                    var0 = 28326.050233615766
                                else:
                                    var0 = 31105.17002214103
                            else:
                                if input[1] <= 87.68228912353516:
                                    var0 = 26671.564459103443
                                else:
                                    var0 = 17170.468532669543
                        else:
                            if input[0] <= 120.52641296386719:
                                if input[0] <= 120.20961380004883:
                                    var0 = 24705.792633406603
                                else:
                                    var0 = 26693.49359344192
                            else:
                                if input[1] <= 89.10974502563477:
                                    var0 = 19894.54586135969
                                else:
                                    var0 = 17799.160644085237
                    else:
                        if input[0] <= 132.51051330566406:
                            if input[1] <= 86.12739181518555:
                                if input[0] <= 130.62017822265625:
                                    var0 = 29270.79567902232
                                else:
                                    var0 = 25385.812527230308
                            else:
                                if input[0] <= 129.66697692871094:
                                    var0 = 17118.67957845321
                                else:
                                    var0 = 18943.36463777042
                        else:
                            if input[0] <= 144.47319793701172:
                                if input[0] <= 133.36951446533203:
                                    var0 = 15768.759205136002
                                else:
                                    var0 = 18253.581484719904
                            else:
                                if input[1] <= 88.27485656738281:
                                    var0 = 17698.31875943851
                                else:
                                    var0 = 11532.22612381446
                else:
                    if input[1] <= 96.34212875366211:
                        if input[0] <= 137.1708984375:
                            if input[1] <= 94.29545974731445:
                                if input[0] <= 120.09618377685547:
                                    var0 = 14628.883033250013
                                else:
                                    var0 = 18280.19420716556
                            else:
                                if input[0] <= 130.42918395996094:
                                    var0 = 17919.387056484113
                                else:
                                    var0 = 11007.783674903101
                        else:
                            if input[1] <= 91.68032836914062:
                                if input[0] <= 140.83290100097656:
                                    var0 = 16231.096561462944
                                else:
                                    var0 = 11685.833959796728
                            else:
                                if input[0] <= 137.86321258544922:
                                    var0 = 13672.420310120591
                                else:
                                    var0 = 10982.709817734769
                    else:
                        if input[0] <= 144.02239227294922:
                            if input[0] <= 122.20077896118164:
                                if input[1] <= 99.71864700317383:
                                    var0 = 17875.81392979808
                                else:
                                    var0 = 11988.197700176639
                            else:
                                if input[0] <= 127.46596908569336:
                                    var0 = 12022.936321601694
                                else:
                                    var0 = 11137.69059786294
                        else:
                            if input[1] <= 98.95084762573242:
                                if input[0] <= 148.01023864746094:
                                    var0 = 11600.060444027846
                                else:
                                    var0 = 8128.250041431601
                            else:
                                if input[0] <= 144.57481384277344:
                                    var0 = 7114.302313062188
                                else:
                                    var0 = 5443.299369397545
            else:
                if input[0] <= 175.48365783691406:
                    if input[1] <= 93.32328414916992:
                        if input[0] <= 169.04581451416016:
                            if input[1] <= 89.59326553344727:
                                if input[0] <= 154.86714935302734:
                                    var0 = 13465.87524759261
                                else:
                                    var0 = 10996.849557961783
                            else:
                                if input[0] <= 160.99070739746094:
                                    var0 = 10757.943931558033
                                else:
                                    var0 = 8717.2463118418
                        else:
                            if input[1] <= 88.10086822509766:
                                if input[0] <= 175.06587982177734:
                                    var0 = 9878.56297148004
                                else:
                                    var0 = 11823.74862557231
                            else:
                                if input[1] <= 88.16509628295898:
                                    var0 = 7624.703751794406
                                else:
                                    var0 = 5800.213740277298
                    else:
                        if input[0] <= 152.19896697998047:
                            if input[1] <= 96.98182678222656:
                                if input[0] <= 150.2915496826172:
                                    var0 = 13865.864091135365
                                else:
                                    var0 = 10570.817826548784
                            else:
                                if input[0] <= 150.80463409423828:
                                    var0 = 5328.956790274741
                                else:
                                    var0 = 7145.453803184203
                        else:
                            if input[1] <= 95.29137420654297:
                                if input[0] <= 155.26647186279297:
                                    var0 = 11478.95489777692
                                else:
                                    var0 = 6198.8244143004895
                            else:
                                if input[0] <= 168.01233673095703:
                                    var0 = 5723.428345680781
                                else:
                                    var0 = 3846.454884564692
                else:
                    if input[1] <= 94.95840072631836:
                        if input[0] <= 199.6644744873047:
                            if input[1] <= 89.0652847290039:
                                if input[0] <= 176.59798431396484:
                                    var0 = 10111.990858473097
                                else:
                                    var0 = 5880.623466021197
                            else:
                                if input[0] <= 186.89141082763672:
                                    var0 = 5010.682155872145
                                else:
                                    var0 = 2794.3362289883976
                        else:
                            if input[0] <= 226.3499526977539:
                                if input[1] <= 93.9458999633789:
                                    var0 = 1840.9664589327574
                                else:
                                    var0 = 3533.713731438788
                            else:
                                if input[0] <= 230.51909637451172:
                                    var0 = 950.5843135316109
                                else:
                                    var0 = 414.6464192344742
                    else:
                        if input[0] <= 192.7313690185547:
                            if input[0] <= 180.0370864868164:
                                if input[0] <= 176.97930908203125:
                                    var0 = 1304.4052686081086
                                else:
                                    var0 = 2012.1571221776012
                            else:
                                if input[0] <= 183.97970581054688:
                                    var0 = 2731.199957265402
                                else:
                                    var0 = 2380.2152641297967
                        else:
                            if input[1] <= 98.2214469909668:
                                if input[0] <= 201.63290405273438:
                                    var0 = 2432.7677525968625
                                else:
                                    var0 = 550.6859342045466
                            else:
                                if input[0] <= 198.04485321044922:
                                    var0 = 286.0274020125829
                                else:
                                    var0 = 617.6776120799882
    return var0
