{"learner":{"attributes":{"scikit_learn":"{\"_estimator_type\": \"regressor\"}"},"feature_names":["met_score","board_percentage"],"feature_types":["float","float"],"gradient_booster":{"model":{"gbtree_model_param":{"num_parallel_tree":"1","num_trees":"100"},"iteration_indptr":[0,1,2,3,4,5,6,7,8,9,10,11,12,13,14,15,16,17,18,19,20,21,22,23,24,25,26,27,28,29,30,31,32,33,34,35,36,37,38,39,40,41,42,43,44,45,46,47,48,49,50,51,52,53,54,55,56,57,58,59,60,61,62,63,64,65,66,67,68,69,70,71,72,73,74,75,76,77,78,79,80,81,82,83,84,85,86,87,88,89,90,91,92,93,94,95,96,97,98,99,100],"tree_info":[0,0,0,0,0,0,0,0,0,0,0,0,0,0,0,0,0,0,0,0,0,0,0,0,0,0,0,0,0,0,0,0,0,0,0,0,0,0,0,0,0,0,0,0,0,0,0,0,0,0,0,0,0,0,0,0,0,0,0,0,0,0,0,0,0,0,0,0,0,0,0,0,0,0,0,0,0,0,0,0,0,0,0,0,0,0,0,0,0,0,0,0,0,0,0,0,0,0,0,0],"trees":[{"base_weights":[-4.4927147E-4,5.882002E3,-9.673732E3,9.441644E3,1.527956E3,-4.0398667E3,-1.5175905E4,1.2097206E4,5.7869194E3,3.9906553E3,-5.193214E3,1.6125507E1,-1.1338248E4,-1.0790443E4,-1.9127357E4,1.2744651E4,9.660524E3,1.1013432E4,2.4657039E3,1.0079549E4,2.0652854E3,-2.3849414E3,-7.8567017E3,2.4889807E3,-2.2671436E3,-3.756237E3,-1.3163351E4,-8.0384434E3,-1.4617676E4,-1.7087115E4,-2.2274248E4,1.29158E3,1.1463735E3,1.2703159E3,3.1430878E2,1.2687416E3,6.517817E2,4.2151074E2,1.488103E2,1.2630677E3,6.162382E2,4.0541248E2,1.3035344E2,9.065297E1,-6.50989E2,-4.7341537E2,-9.169142E2,7.594802E2,1.3658347E2,5.1992E1,-6.751837E2,1.2111663E2,-8.1022766E2,-1.112474E3,-1.9412131E3,-5.49425E2,-9.7386426E2,-1.2512523E3,-1.564137E3,-1.527652E3,-1.9942178E3,-2.0504368E3,-2.399291E3],"categories":[],"categories_nodes":[],"categories_segments":[],"categories_sizes":[],"default_left":[0,0,0,0,0,0,0,0,0,0,0,0,0,0,0,0,0,0,0,0,0,0,0,0,0,0,0,0,0,0,0,0,0,0,0,0,0,0,0,0,0,0,0,0,0,0,0,0,0,0,0,0,0,0,0,0,0,0,0,0,0,0,0],"id":0,"left_children":[1,3,5,7,9,11,13,15,17,19,21,23,25,27,29,31,33,35,37,39,41,43,45,47,49,51,53,55,57,59,61,-1,-1,-1,-1,-1,-1,-1,-1,-1,-1,-1,-1,-1,-1,-1,-1,-1,-1,-1,-1,-1,-1,-1,-1,-1,-1,-1,-1,-1,-1,-1,-1],"loss_changes":[5.69123E11,9.638838E10,1.17175026E11,3.3141686E10,4.6350385E10,5.5356252E10,3.2943931E10,3.0021386E9,2.5003618E10,2.4000367E10,5.598591E9,6.798014E9,9.194308E9,9.456583E9,6.0719104E9,1.9437978E8,8.2887475E9,4.131631E9,1.5038505E9,4.838818E9,2.3550858E9,4.988715E9,1.5343821E9,3.3042163E9,7.827963E9,2.8379105E9,6.637535E9,2.2434038E9,6.210355E8,2.8693463E9,7.004324E8,0E0,0E0,0E0,0E0,0E0,0E0,0E0,0E0,0E0,0E0,0E0,0E0,0E0,0E0,0E0,0E0,0E0,0E0,0E0,0E0,0E0,0E0,0E0,0E0,0E0,0E0,0E0,0E0,0E0,0E0,0E0,0E0],"parents":[2147483647,0,0,1,1,2,2,3,3,4,4,5,5,6,6,7,7,8,8,9,9,10,10,11,11,12,12,13,13,14,14,15,15,16,16,17,17,18,18,19,19,20,20,21,21,22,22,23,23,24,24,25,25,26,26,27,27,28,28,29,29,30,30],"right_children":[2,4,6,8,10,12,14,16,18,20,22,24,26,28,30,32,34,36,38,40,42,44,46,48,50,52,54,56,58,60,62,-1,-1,-1,-1,-1,-1,-1,-1,-1,-1,-1,-1,-1,-1,-1,-1,-1,-1,-1,-1,-1,-1,-1,-1,-1,-1,-1,-1,-1,-1,-1,-1],"split_conditions":[1.2232202E2,9.3675964E1,8.493666E1,8.696638E1,9.125111E1,1.5326056E2,1.4486098E2,8.531151E1,6.525906E1,7.597585E1,1.0780887E2,7.797273E1,7.16755E1,9.35646E1,1.6804575E2,8.1161194E1,8.228E1,9.708323E1,9.149605E1,1.11940865E2,8.07289E1,9.722808E1,9.396708E1,6.767506E1,1.3861972E2,1.6804575E2,1.8222298E2,1.2984796E2,9.654235E1,9.396708E1,1.8222298E2,1.29158E3,1.1463735E3,1.2703159E3,3.1430878E2,1.2687416E3,6.517817E2,4.2151074E2,1.488103E2,1.2630677E3,6.162382E2,4.0541248E2,1.3035344E2,9.065297E1,-6.50989E2,-4.7341537E2,-9.169142E2,7.594802E2,1.3658347E2,5.1992E1,-6.751837E2,1.2111663E2,-8.1022766E2,-1.112474E3,-1.9412131E3,-5.49425E2,-9.7386426E2,-1.2512523E3,-1.564137E3,-1.527652E3,-1.9942178E3,-2.0504368E3,-2.399291E3],"split_indices":[0,0,1,1,1,0,0,0,0,1,0,1,1,1,0,0,1,1,1,0,1,1,1,1,0,0,0,0,1,1,0,0,0,0,0,0,0,0,0,0,0,0,0,0,0,0,0,0,0,0,0,0,0,0,0,0,0,0,0,0,0,0,0],"split_type":[0,0,0,0,0,0,0,0,0,0,0,0,0,0,0,0,0,0,0,0,0,0,0,0,0,0,0,0,0,0,0,0,0,0,0,0,0,0,0,0,0,0,0,0,0,0,0,0,0,0,0,0,0,0,0,0,0,0,0,0,0,0,0],"sum_hessian":[1E4,6.219E3,3.781E3,3.421E3,2.798E3,1.869E3,1.912E3,1.98E3,1.441E3,2.048E3,7.5E2,1.202E3,6.67E2,9.08E2,1.004E3,1.561E3,4.19E2,5.59E2,8.82E2,4.91E2,1.557E3,3.66E2,3.84E2,5.77E2,6.25E2,1.3E2,5.37E2,5.3E2,3.78E2,6.13E2,3.91E2,1.369E3,1.92E2,2.85E2,1.34E2,4.06E2,1.53E2,3.15E2,5.67E2,2.96E2,1.95E2,4.3E2,1.127E3,2.04E2,1.62E2,1.15E2,2.69E2,1.03E2,4.74E2,3.86E2,2.39E2,6.1E1,6.9E1,4.07E2,1.3E2,2.14E2,3.16E2,1.28E2,2.5E2,3.79E2,2.34E2,1.99E2,1.92E2],"tree_param":{"num_deleted":"0","num_feature":"2","num_nodes":"63","size_leaf_vector":"1"}},{"base_weights":[-8.805558E-1,5.4713584E3,-8.441538E3,8.387368E3,1.4040403E3,-3.3974568E3,-1.3387395E4,1.1078306E4,5.390821E3,8.573486E3,-5.4543E2,-5.372184E2,-1.1889698E4,-9.283096E3,-1.7081807E4,1.1673473E3,9.443832E3,9.561767E3,2.139553E3,1.0820985E4,5.3830835E3,1.0709285E3,-6.4444316E3,1.4081975E3,-4.0952327E3,-7.909236E3,-1.44631E4,-6.6838335E3,-1.2810199E4,-1.5179399E4,-1.9917223E4,1.1001178E3,1.8886621E2,1.1001932E3,5.475284E2,4.3119382E2,1.5180707E2,1.2120392E3,8.858608E2,1.0205208E3,1.7436284E2,1.5887569E2,-1.1655077E2,-2.581024E2,-7.6262103E2,9.120295E2,6.737824E1,4.9280066E0,-7.7275116E2,-5.185014E2,-1.1447374E3,-1.2432272E3,-1.8460067E3,-3.3728125E2,-8.150356E2,-1.0803296E3,-1.3865122E3,-1.3562004E3,-1.7779567E3,-1.8373202E3,-2.1606052E3],"categories":[],"categories_nodes":[],"categories_segments":[],"categories_sizes":[],"default_left":[0,0,0,0,0,0,0,0,0,0,0,0,0,0,0,0,0,0,0,0,0,0,0,0,0,0,0,0,0,0,0,0,0,0,0,0,0,0,0,0,0,0,0,0,0,0,0,0,0,0,0,0,0,0,0,0,0,0,0,0,0],"id":1,"left_children":[1,3,5,7,9,11,13,15,17,19,21,23,25,27,29,-1,31,33,35,37,39,41,43,45,47,49,51,53,55,57,59,-1,-1,-1,-1,-1,-1,-1,-1,-1,-1,-1,-1,-1,-1,-1,-1,-1,-1,-1,-1,-1,-1,-1,-1,-1,-1,-1,-1,-1,-1],"loss_changes":[4.619853E11,7.195679E10,9.80972E10,2.8436759E10,3.543541E10,4.73345E10,2.9955097E10,1.7001021E9,2.2680424E10,3.8281216E9,1.9019495E10,1.0104699E10,4.9150853E9,8.5596733E9,5.329158E9,0E0,5.8857677E9,4.2536223E9,1.2652467E9,7.009567E8,3.948485E9,1.8154209E9,1.9389972E9,5.340558E9,7.7682575E9,1.8201856E9,2.181288E9,2.6188595E9,6.9494784E8,2.4041226E9,6.8778394E8,0E0,0E0,0E0,0E0,0E0,0E0,0E0,0E0,0E0,0E0,0E0,0E0,0E0,0E0,0E0,0E0,0E0,0E0,0E0,0E0,0E0,0E0,0E0,0E0,0E0,0E0,0E0,0E0,0E0,0E0],"parents":[2147483647,0,0,1,1,2,2,3,3,4,4,5,5,6,6,7,7,8,8,9,9,10,10,11,11,12,12,13,13,14,14,16,16,17,17,18,18,19,19,20,20,21,21,22,22,23,23,24,24,25,25,26,26,27,27,28,28,29,29,30,30],"right_children":[2,4,6,8,10,12,14,16,18,20,22,24,26,28,30,-1,32,34,36,38,40,42,44,46,48,50,52,54,56,58,60,-1,-1,-1,-1,-1,-1,-1,-1,-1,-1,-1,-1,-1,-1,-1,-1,-1,-1,-1,-1,-1,-1,-1,-1,-1,-1,-1,-1,-1,-1],"split_conditions":[1.20743744E2,9.484961E1,8.493666E1,8.573887E1,7.719595E1,1.60995E2,1.4372421E2,8.210079E1,6.9420815E1,1.1119185E2,9.467523E1,1.4202808E2,7.583361E1,9.346045E1,1.6689479E2,1.1673473E3,8.75228E1,9.654235E1,7.601116E1,1.0499302E2,7.208544E1,9.066608E1,1.0131932E2,6.767506E1,7.797273E1,1.7816408E2,1.8222298E2,8.696638E1,9.654235E1,9.396708E1,1.8222298E2,1.1001178E3,1.8886621E2,1.1001932E3,5.475284E2,4.3119382E2,1.5180707E2,1.2120392E3,8.858608E2,1.0205208E3,1.7436284E2,1.5887569E2,-1.1655077E2,-2.581024E2,-7.6262103E2,9.120295E2,6.737824E1,4.9280066E0,-7.7275116E2,-5.185014E2,-1.1447374E3,-1.2432272E3,-1.8460067E3,-3.3728125E2,-8.150356E2,-1.0803296E3,-1.3865122E3,-1.3562004E3,-1.7779567E3,-1.8373202E3,-2.1606052E3],"split_indices":[0,0,1,1,1,0,0,1,0,0,1,0,1,1,0,0,0,1,0,0,1,1,0,1,1,0,0,1,1,1,0,0,0,0,0,0,0,0,0,0,0,0,0,0,0,0,0,0,0,0,0,0,0,0,0,0,0,0,0,0,0],"split_type":[0,0,0,0,0,0,0,0,0,0,0,0,0,0,0,0,0,0,0,0,0,0,0,0,0,0,0,0,0,0,0,0,0,0,0,0,0,0,0,0,0,0,0,0,0,0,0,0,0,0,0,0,0,0,0,0,0,0,0,0,0],"sum_hessian":[1E4,6.067E3,3.933E3,3.533E3,2.534E3,1.948E3,1.985E3,1.86E3,1.673E3,5.41E2,1.993E3,1.458E3,4.9E2,9.42E2,1.043E3,1.359E3,5.01E2,7.32E2,9.41E2,3.16E2,2.25E2,1.565E3,4.28E2,9.43E2,5.15E2,1.94E2,2.96E2,5.44E2,3.98E2,6.28E2,4.15E2,4.15E2,8.6E1,5.4E2,1.92E2,2.08E2,7.33E2,1.87E2,1.29E2,9.6E1,1.29E2,1.271E3,2.94E2,1.01E2,3.27E2,8.1E1,8.62E2,2.41E2,2.74E2,1.11E2,8.3E1,1.99E2,9.7E1,1.68E2,3.76E2,1.41E2,2.57E2,3.91E2,2.37E2,2.23E2,1.92E2],"tree_param":{"num_deleted":"0","num_feature":"2","num_nodes":"61","size_leaf_vector":"1"}},{"base_weights":[-1.6214281E0,4.354608E3,-8.632279E3,7.549958E3,7.2688776E2,-3.641142E3,-1.2764643E4,9.971795E3,4.8530713E3,2.897429E3,-4.812905E3,-7.949986E2,-1.03495E4,-9.940706E3,-1.6286697E4,1.0506984E3,8.502017E3,8.974328E3,2.161746E3,8.876777E3,1.5913265E3,-2.3261504E3,-7.869553E3,8.7689075E2,-3.779689E3,-4.1069854E3,-1.1759431E4,-6.902377E3,-1.201002E4,-1.4958374E4,-1.9002408E4,1.0075385E3,2.309305E2,1.0270795E3,5.0148215E2,3.724033E2,1.03270584E2,1.0826366E3,5.933703E2,3.5156854E2,9.162088E1,9.060685E1,-6.03434E2,-6.906955E2,-9.468294E2,7.392309E2,4.5127148E1,7.96166E1,-6.781095E2,-1.17294304E2,-7.881609E2,-8.732999E2,-1.395951E3,-2.7305002E2,-7.738507E2,-9.788913E2,-1.3323838E3,-1.3449432E3,-1.737042E3,-1.7824924E3,-2.0266849E3],"categories":[],"categories_nodes":[],"categories_segments":[],"categories_sizes":[],"default_left":[0,0,0,0,0,0,0,0,0,0,0,0,0,0,0,0,0,0,0,0,0,0,0,0,0,0,0,0,0,0,0,0,0,0,0,0,0,0,0,0,0,0,0,0,0,0,0,0,0,0,0,0,0,0,0,0,0,0,0,0,0],"id":2,"left_children":[1,3,5,7,9,11,13,15,17,19,21,23,25,27,29,-1,31,33,35,37,39,41,43,45,47,49,51,53,55,57,59,-1,-1,-1,-1,-1,-1,-1,-1,-1,-1,-1,-1,-1,-1,-1,-1,-1,-1,-1,-1,-1,-1,-1,-1,-1,-1,-1,-1,-1,-1],"loss_changes":[3.7604642E11,7.704544E10,6.915103E10,2.3033643E10,3.7457764E10,2.9032147E10,1.8089148E10,1.3745848E9,1.8548003E10,1.7463849E10,6.64789E9,5.3377014E9,3.9387914E9,6.336381E9,2.6557317E9,0E0,4.867924E9,3.341648E9,1.7847332E9,2.2366106E9,2.3846513E9,5.8185226E9,5.394084E8,1.8990021E9,5.279254E9,9.3212224E8,2.3350395E9,1.429975E9,1.6379658E9,1.7754685E9,3.1801344E7,0E0,0E0,0E0,0E0,0E0,0E0,0E0,0E0,0E0,0E0,0E0,0E0,0E0,0E0,0E0,0E0,0E0,0E0,0E0,0E0,0E0,0E0,0E0,0E0,0E0,0E0,0E0,0E0,0E0,0E0],"parents":[2147483647,0,0,1,1,2,2,3,3,4,4,5,5,6,6,7,7,8,8,9,9,10,10,11,11,12,12,13,13,14,14,16,16,17,17,18,18,19,19,20,20,21,21,22,22,23,23,24,24,25,25,26,26,27,27,28,28,29,29,30,30],"right_children":[2,4,6,8,10,12,14,16,18,20,22,24,26,28,30,-1,32,34,36,38,40,42,44,46,48,50,52,54,56,58,60,-1,-1,-1,-1,-1,-1,-1,-1,-1,-1,-1,-1,-1,-1,-1,-1,-1,-1,-1,-1,-1,-1,-1,-1,-1,-1,-1,-1,-1,-1],"split_conditions":[1.2681074E2,9.484961E1,8.397733E1,8.573887E1,9.066608E1,1.60995E2,1.5251414E2,8.210079E1,6.673808E1,7.360714E1,1.11940865E2,1.4486098E2,7.116141E1,9.0135216E1,1.767969E2,1.0506984E3,8.6099594E1,9.708323E1,9.125111E1,1.1434239E2,7.911639E1,9.672275E1,9.770846E1,6.551621E1,7.597585E1,1.7816408E2,1.730469E2,1.3021881E2,1.354387E2,9.320908E1,1.923938E2,1.0075385E3,2.309305E2,1.0270795E3,5.0148215E2,3.724033E2,1.03270584E2,1.0826366E3,5.933703E2,3.5156854E2,9.162088E1,9.060685E1,-6.03434E2,-6.906955E2,-9.468294E2,7.392309E2,4.5127148E1,7.96166E1,-6.781095E2,-1.17294304E2,-7.881609E2,-8.732999E2,-1.395951E3,-2.7305002E2,-7.738507E2,-9.788913E2,-1.3323838E3,-1.3449432E3,-1.737042E3,-1.7824924E3,-2.0266849E3],"split_indices":[0,0,1,1,1,0,0,1,0,1,0,0,1,1,0,0,0,1,1,0,1,1,1,1,1,0,0,0,0,1,0,0,0,0,0,0,0,0,0,0,0,0,0,0,0,0,0,0,0,0,0,0,0,0,0,0,0,0,0,0,0],"split_type":[0,0,0,0,0,0,0,0,0,0,0,0,0,0,0,0,0,0,0,0,0,0,0,0,0,0,0,0,0,0,0,0,0,0,0,0,0,0,0,0,0,0,0,0,0,0,0,0,0,0,0,0,0,0,0,0,0,0,0,0,0],"sum_hessian":[1E4,6.646E3,3.354E3,3.533E3,3.113E3,1.52E3,1.834E3,1.86E3,1.673E3,2.237E3,8.76E2,1.068E3,4.52E2,1.02E3,8.14E2,1.359E3,5.01E2,6.6E2,1.013E3,4E2,1.837E3,4.84E2,3.92E2,6.85E2,3.83E2,8.4E1,3.68E2,4.15E2,6.05E2,5.51E2,2.63E2,3.99E2,1.02E2,4.96E2,1.64E2,4.24E2,5.89E2,2.39E2,1.61E2,4.76E2,1.361E3,2.59E2,2.25E2,2.48E2,1.44E2,4.1E1,6.44E2,1.52E2,2.31E2,4.8E1,3.6E1,1.57E2,2.11E2,7E1,3.45E2,2.28E2,3.77E2,3.43E2,2.08E2,1.44E2,1.19E2],"tree_param":{"num_deleted":"0","num_feature":"2","num_nodes":"61","size_leaf_vector":"1"}},{"base_weights":[-2.356961E0,4.6345474E3,-6.589634E3,7.5451724E3,2.120573E3,-2.9351982E3,-1.1056334E4,8.928908E3,4.0671929E3,6.654265E3,-9.057608E1,1.0089305E1,-8.825786E3,-7.87086E3,-1.422992E4,9.458823E3,7.100224E3,1.0102412E4,1.8247532E3,9.030624E3,4.151794E3,1.1000513E3,-3.113704E3,6.1049175E3,-5.800242E2,-4.5738564E3,-1.0909269E4,-5.8108335E3,-1.0191599E4,-1.2799698E4,-1.6903457E4,7.423826E2,9.4867883E2,9.411525E2,1.6183801E2,1.0566173E3,7.0837256E2,4.8124786E2,1.09507645E2,9.779421E2,6.583412E2,9.5238965E2,1.5402147E2,2.299823E2,7.656899E1,4.5051964E1,-5.481204E2,8.5131146E2,2.2638411E2,5.9945984E1,-3.0375232E2,-7.1206406E1,-7.581552E2,-9.197736E2,-1.4475408E3,-4.1717905E2,-7.288217E2,-7.86791E2,-1.1079604E3,-1.172038E3,-1.5458324E3,-1.60967E3,-1.8501373E3],"categories":[],"categories_nodes":[],"categories_segments":[],"categories_sizes":[],"default_left":[0,0,0,0,0,0,0,0,0,0,0,0,0,0,0,0,0,0,0,0,0,0,0,0,0,0,0,0,0,0,0,0,0,0,0,0,0,0,0,0,0,0,0,0,0,0,0,0,0,0,0,0,0,0,0,0,0,0,0,0,0,0,0],"id":3,"left_children":[1,3,5,7,9,11,13,15,17,19,21,23,25,27,29,31,33,35,37,39,41,43,45,47,49,51,53,55,57,59,61,-1,-1,-1,-1,-1,-1,-1,-1,-1,-1,-1,-1,-1,-1,-1,-1,-1,-1,-1,-1,-1,-1,-1,-1,-1,-1,-1,-1,-1,-1,-1,-1],"loss_changes":[3.055068E11,4.293618E10,6.741531E10,1.3053952E10,3.1588336E10,3.94528E10,1.8681315E10,1.817641E9,1.0483651E10,6.105518E9,7.630594E9,5.4596444E9,6.665089E9,4.38691E9,3.339731E9,1.5220736E7,5.5723233E9,2.1914214E8,1.2308317E9,9.049948E8,7.0703155E9,6.083995E8,5.0570107E9,1.2202368E9,4.013457E9,2.909991E9,2.96747E9,1.1682355E9,8.1248666E8,1.5692186E9,1.1599872E8,0E0,0E0,0E0,0E0,0E0,0E0,0E0,0E0,0E0,0E0,0E0,0E0,0E0,0E0,0E0,0E0,0E0,0E0,0E0,0E0,0E0,0E0,0E0,0E0,0E0,0E0,0E0,0E0,0E0,0E0,0E0,0E0],"parents":[2147483647,0,0,1,1,2,2,3,3,4,4,5,5,6,6,7,7,8,8,9,9,10,10,11,11,12,12,13,13,14,14,15,15,16,16,17,17,18,18,19,19,20,20,21,21,22,22,23,23,24,24,25,25,26,26,27,27,28,28,29,29,30,30],"right_children":[2,4,6,8,10,12,14,16,18,20,22,24,26,28,30,32,34,36,38,40,42,44,46,48,50,52,54,56,58,60,62,-1,-1,-1,-1,-1,-1,-1,-1,-1,-1,-1,-1,-1,-1,-1,-1,-1,-1,-1,-1,-1,-1,-1,-1,-1,-1,-1,-1,-1,-1,-1,-1],"split_conditions":[1.1867102E2,8.569725E1,8.6112236E1,9.0903625E1,8.094497E1,1.5326056E2,1.4372421E2,7.79028E1,5.0577583E1,1.0324713E2,9.396708E1,6.817933E1,7.552577E1,9.35646E1,1.6917928E2,6.282391E1,8.517832E1,4.719101E1,6.0437893E1,7.849458E1,7.233368E1,8.370164E1,9.905083E1,1.377287E2,1.3861972E2,1.6804575E2,1.767969E2,8.955176E1,1.24813614E2,9.672275E1,1.923938E2,7.423826E2,9.4867883E2,9.411525E2,1.6183801E2,1.0566173E3,7.0837256E2,4.8124786E2,1.09507645E2,9.779421E2,6.583412E2,9.5238965E2,1.5402147E2,2.299823E2,7.656899E1,4.5051964E1,-5.481204E2,8.5131146E2,2.2638411E2,5.9945984E1,-3.0375232E2,-7.1206406E1,-7.581552E2,-9.197736E2,-1.4475408E3,-4.1717905E2,-7.288217E2,-7.86791E2,-1.1079604E3,-1.172038E3,-1.5458324E3,-1.60967E3,-1.8501373E3],"split_indices":[0,0,1,1,1,0,0,0,0,0,1,1,1,1,0,1,1,0,0,1,1,1,0,0,0,0,0,1,0,1,0,0,0,0,0,0,0,0,0,0,0,0,0,0,0,0,0,0,0,0,0,0,0,0,0,0,0,0,0,0,0,0,0],"split_type":[0,0,0,0,0,0,0,0,0,0,0,0,0,0,0,0,0,0,0,0,0,0,0,0,0,0,0,0,0,0,0,0,0,0,0,0,0,0,0,0,0,0,0,0,0,0,0,0,0,0,0,0,0,0,0,0,0,0,0,0,0,0,0],"sum_hessian":[1E4,5.869E3,4.131E3,2.719E3,3.15E3,2.273E3,1.858E3,1.944E3,7.75E2,1.032E3,2.118E3,1.516E3,7.57E2,9.29E2,9.29E2,1.504E3,4.4E2,2.09E2,5.66E2,5.28E2,5.04E2,1.52E3,5.98E2,1.33E2,1.383E3,2.5E2,5.07E2,4.94E2,4.35E2,6.09E2,3.2E2,2.4E1,1.48E3,3.09E2,1.31E2,1.79E2,3E1,1.1E2,4.56E2,4.02E2,1.26E2,1.64E2,3.4E2,3.3E2,1.19E3,2.39E2,3.59E2,8.1E1,5.2E1,9.35E2,4.48E2,1.1E2,1.4E2,3.45E2,1.62E2,2.36E2,2.58E2,1.23E2,3.12E2,4.37E2,1.72E2,2.2E2,1E2],"tree_param":{"num_deleted":"0","num_feature":"2","num_nodes":"63","size_leaf_vector":"1"}},{"base_weights":[-2.5097592E0,3.5379602E3,-7.0169663E3,6.018846E3,4.3250412E2,-2.3986648E3,-1.0087003E4,8.228435E3,4.0243926E3,2.1662122E3,-4.4086353E3,-3.2488647E2,-8.650072E3,-7.7309585E3,-1.30090205E4,8.511418E2,6.879383E3,7.180706E3,1.7491816E3,7.2201157E3,1.0614033E3,-2.640937E3,-7.004099E3,1.2216969E3,-2.7890427E3,-2.0032693E3,-9.522011E3,-4.9552085E3,-9.452063E3,-1.1990505E4,-1.560105E4,8.5705194E2,7.597571E1,8.821959E2,4.8782578E2,3.2317325E2,8.248604E1,8.874269E2,4.8372696E2,2.3395052E2,4.6191326E1,2.9617512E1,-5.8296246E2,-6.1654364E2,-1.0613944E3,6.0306854E2,8.618212E1,4.4128788E1,-5.460308E2,3.3941437E2,-5.7429675E2,-8.415343E2,-1.3806049E3,-2.0334714E2,-6.3438275E2,-8.1353064E2,-1.1152456E3,-1.0711129E3,-1.4184027E3,-1.4759694E3,-1.6932799E3],"categories":[],"categories_nodes":[],"categories_segments":[],"categories_sizes":[],"default_left":[0,0,0,0,0,0,0,0,0,0,0,0,0,0,0,0,0,0,0,0,0,0,0,0,0,0,0,0,0,0,0,0,0,0,0,0,0,0,0,0,0,0,0,0,0,0,0,0,0,0,0,0,0,0,0,0,0,0,0,0,0],"id":4,"left_children":[1,3,5,7,9,11,13,15,17,19,21,23,25,27,29,-1,31,33,35,37,39,41,43,45,47,49,51,53,55,57,59,-1,-1,-1,-1,-1,-1,-1,-1,-1,-1,-1,-1,-1,-1,-1,-1,-1,-1,-1,-1,-1,-1,-1,-1,-1,-1,-1,-1,-1,-1],"loss_changes":[2.4839437E11,5.1207758E10,4.754419E10,1.6250462E10,2.479444E10,1.7381958E10,1.3771506E10,6.102876E8,1.3947849E10,1.2136659E10,3.5555512E9,3.8449188E9,1.9166577E9,5.294248E9,2.183676E9,0E0,3.1913697E9,3.0329897E9,1.5472033E9,1.4942945E9,1.3673697E9,4.356699E9,8.8820634E8,1.0677984E9,3.3591176E9,8.268802E8,1.2824125E9,1.7316874E9,1.451946E9,1.6693903E9,3.0195712E7,0E0,0E0,0E0,0E0,0E0,0E0,0E0,0E0,0E0,0E0,0E0,0E0,0E0,0E0,0E0,0E0,0E0,0E0,0E0,0E0,0E0,0E0,0E0,0E0,0E0,0E0,0E0,0E0,0E0,0E0],"parents":[2147483647,0,0,1,1,2,2,3,3,4,4,5,5,6,6,7,7,8,8,9,9,10,10,11,11,12,12,13,13,14,14,16,16,17,17,18,18,19,19,20,20,21,21,22,22,23,23,24,24,25,25,26,26,27,27,28,28,29,29,30,30],"right_children":[2,4,6,8,10,12,14,16,18,20,22,24,26,28,30,-1,32,34,36,38,40,42,44,46,48,50,52,54,56,58,60,-1,-1,-1,-1,-1,-1,-1,-1,-1,-1,-1,-1,-1,-1,-1,-1,-1,-1,-1,-1,-1,-1,-1,-1,-1,-1,-1,-1,-1,-1],"split_conditions":[1.2681074E2,9.663691E1,8.257484E1,8.433978E1,9.125111E1,1.6491394E2,1.5251414E2,8.228E1,6.9420815E1,7.360714E1,9.770846E1,1.4536182E2,6.905174E1,8.858917E1,1.8003703E2,8.511418E2,8.8409615E1,9.320908E1,8.1161194E1,1.1434239E2,1.06282234E2,1.11940865E2,1.20743744E2,6.551621E1,7.597585E1,1.7816408E2,1.923938E2,1.3305806E2,9.575021E1,9.247059E1,9.162307E1,8.5705194E2,7.597571E1,8.821959E2,4.8782578E2,3.2317325E2,8.248604E1,8.874269E2,4.8372696E2,2.3395052E2,4.6191326E1,2.9617512E1,-5.8296246E2,-6.1654364E2,-1.0613944E3,6.0306854E2,8.618212E1,4.4128788E1,-5.460308E2,3.3941437E2,-5.7429675E2,-8.415343E2,-1.3806049E3,-2.0334714E2,-6.3438275E2,-8.1353064E2,-1.1152456E3,-1.0711129E3,-1.4184027E3,-1.4759694E3,-1.6932799E3],"split_indices":[0,0,1,1,1,0,0,1,0,1,1,0,1,1,0,0,0,1,0,0,0,0,0,1,1,0,0,0,1,1,1,0,0,0,0,0,0,0,0,0,0,0,0,0,0,0,0,0,0,0,0,0,0,0,0,0,0,0,0,0,0],"split_type":[0,0,0,0,0,0,0,0,0,0,0,0,0,0,0,0,0,0,0,0,0,0,0,0,0,0,0,0,0,0,0,0,0,0,0,0,0,0,0,0,0,0,0,0,0,0,0,0,0,0,0,0,0,0,0,0,0,0,0,0,0],"sum_hessian":[1E4,6.646E3,3.354E3,3.694E3,2.952E3,1.34E3,2.014E3,1.751E3,1.943E3,2.174E3,7.78E2,1.007E3,3.33E2,1.117E3,8.97E2,1.443E3,3.08E2,8.13E2,1.13E3,3.89E2,1.785E3,4.64E2,3.14E2,6.19E2,3.88E2,3.9E1,2.94E2,4.29E2,6.88E2,6.48E2,2.49E2,2.41E2,6.7E1,4.73E2,3.4E2,4.33E2,6.97E2,2.28E2,1.61E2,5.69E2,1.216E3,2.42E2,2.22E2,2.57E2,5.7E1,4.2E1,5.77E2,1.76E2,2.12E2,1.6E1,2.3E1,2.36E2,5.8E1,1.39E2,2.9E2,3.91E2,2.97E2,4.13E2,2.35E2,1.6E2,8.9E1],"tree_param":{"num_deleted":"0","num_feature":"2","num_nodes":"61","size_leaf_vector":"1"}},{"base_weights":[-3.0303273E0,3.6693857E3,-5.488306E3,5.991188E3,1.5252351E3,-2.677692E3,-9.467268E3,7.384644E3,3.5091963E3,5.435046E3,-2.2082661E2,-2.850461E2,-7.5931216E3,-6.95248E3,-1.1809817E4,7.727264E3,5.8269927E3,8.366498E3,1.8709684E3,7.575666E3,3.2243982E3,7.0360785E2,-3.2821118E3,1.1965128E3,-2.094517E3,-3.074938E3,-9.037076E3,-5.7034375E3,-9.027696E3,-1.0676427E4,-1.4004361E4,6.2357245E2,7.751302E2,7.7799164E2,8.636433E1,8.7044464E2,6.450749E2,3.6503198E2,4.156772E1,8.19379E2,6.042135E2,7.7016266E2,1.0107644E2,9.972703E1,-5.3032307E1,9.724031E1,-4.687783E2,5.087542E2,5.8598507E1,1.1420121E2,-4.3682202E2,3.6049114E1,-5.514247E2,-7.739637E2,-1.2222676E3,-5.0942047E2,-7.8901227E2,-7.662988E2,-9.3725604E2,-9.8002686E2,-1.2630383E3,-1.3295554E3,-1.5173494E3],"categories":[],"categories_nodes":[],"categories_segments":[],"categories_sizes":[],"default_left":[0,0,0,0,0,0,0,0,0,0,0,0,0,0,0,0,0,0,0,0,0,0,0,0,0,0,0,0,0,0,0,0,0,0,0,0,0,0,0,0,0,0,0,0,0,0,0,0,0,0,0,0,0,0,0,0,0,0,0,0,0,0,0],"id":5,"left_children":[1,3,5,7,9,11,13,15,17,19,21,23,25,27,29,31,33,35,37,39,41,43,45,47,49,51,53,55,57,59,61,-1,-1,-1,-1,-1,-1,-1,-1,-1,-1,-1,-1,-1,-1,-1,-1,-1,-1,-1,-1,-1,-1,-1,-1,-1,-1,-1,-1,-1,-1,-1,-1],"loss_changes":[2.0148242E11,2.9815824E10,4.4830966E10,9.920864E9,2.127342E10,2.7659432E10,9.696985E9,9.374761E8,8.22818E9,4.527907E9,6.1008676E9,4.2462717E9,4.9957315E9,2.0299162E9,1.9845693E9,5.660672E6,3.2501422E9,1.1282637E8,2.0079153E9,4.130734E8,4.6999137E9,6.0059565E8,2.9947827E9,2.0661501E9,5.251889E9,1.5774414E9,2.3150141E9,6.312356E8,6.936986E7,8.520458E8,3.774464E7,0E0,0E0,0E0,0E0,0E0,0E0,0E0,0E0,0E0,0E0,0E0,0E0,0E0,0E0,0E0,0E0,0E0,0E0,0E0,0E0,0E0,0E0,0E0,0E0,0E0,0E0,0E0,0E0,0E0,0E0,0E0,0E0],"parents":[2147483647,0,0,1,1,2,2,3,3,4,4,5,5,6,6,7,7,8,8,9,9,10,10,11,11,12,12,13,13,14,14,15,15,16,16,17,17,18,18,19,19,20,20,21,21,22,22,23,23,24,24,25,25,26,26,27,27,28,28,29,29,30,30],"right_children":[2,4,6,8,10,12,14,16,18,20,22,24,26,28,30,32,34,36,38,40,42,44,46,48,50,52,54,56,58,60,62,-1,-1,-1,-1,-1,-1,-1,-1,-1,-1,-1,-1,-1,-1,-1,-1,-1,-1,-1,-1,-1,-1,-1,-1,-1,-1,-1,-1,-1,-1,-1,-1],"split_conditions":[1.1989922E2,8.75228E1,8.696638E1,8.858917E1,8.0045166E1,1.5482742E2,1.4372421E2,8.1161194E1,5.0577583E1,1.0499302E2,9.5027214E1,8.013507E1,7.44155E1,9.575021E1,1.6917928E2,6.282391E1,8.4238144E1,4.719101E1,9.381696E1,7.729001E1,7.208544E1,9.149605E1,9.623608E1,6.767506E1,1.3118771E2,1.6804575E2,1.8003703E2,1.377287E2,1.24813614E2,9.672275E1,1.9009709E2,6.2357245E2,7.751302E2,7.7799164E2,8.636433E1,8.7044464E2,6.450749E2,3.6503198E2,4.156772E1,8.19379E2,6.042135E2,7.7016266E2,1.0107644E2,9.972703E1,-5.3032307E1,9.724031E1,-4.687783E2,5.087542E2,5.8598507E1,1.1420121E2,-4.3682202E2,3.6049114E1,-5.514247E2,-7.739637E2,-1.2222676E3,-5.0942047E2,-7.8901227E2,-7.662988E2,-9.3725604E2,-9.8002686E2,-1.2630383E3,-1.3295554E3,-1.5173494E3],"split_indices":[0,0,1,1,1,0,0,0,0,0,1,1,1,1,0,1,1,0,1,1,1,1,0,1,0,0,0,0,0,1,0,0,0,0,0,0,0,0,0,0,0,0,0,0,0,0,0,0,0,0,0,0,0,0,0,0,0,0,0,0,0,0,0],"split_type":[0,0,0,0,0,0,0,0,0,0,0,0,0,0,0,0,0,0,0,0,0,0,0,0,0,0,0,0,0,0,0,0,0,0,0,0,0,0,0,0,0,0,0,0,0,0,0,0,0,0,0,0,0,0,0,0,0,0,0,0,0,0,0],"sum_hessian":[1E4,5.99E3,4.01E3,2.875E3,3.115E3,2.351E3,1.659E3,1.84E3,1.035E3,9.61E2,2.154E3,1.582E3,7.69E2,8.02E2,8.57E2,1.505E3,3.35E2,2.6E2,7.75E2,4.87E2,4.74E2,1.655E3,4.99E2,8.7E2,7.12E2,1.87E2,5.82E2,5.03E2,2.99E2,5.69E2,2.88E2,2.8E1,1.477E3,2.4E2,9.5E1,2.18E2,4.2E1,3.48E2,4.27E2,3.44E2,1.43E2,1.56E2,3.18E2,1.337E3,3.18E2,1.24E2,3.75E2,1.17E2,7.53E2,2.94E2,4.18E2,7.8E1,1.09E2,4.16E2,1.66E2,3.96E2,1.07E2,6.5E1,2.34E2,3.97E2,1.72E2,1.87E2,1.01E2],"tree_param":{"num_deleted":"0","num_feature":"2","num_nodes":"63","size_leaf_vector":"1"}},{"base_weights":[-3.1475813E0,2.8703606E3,-5.6962046E3,4.7772583E3,1.880705E2,-1.9143811E3,-8.210214E3,6.6637217E3,3.0958357E3,1.6897021E3,-3.6591353E3,-3.610638E2,-7.4933833E3,-6.5411787E3,-1.1046635E4,6.9718256E2,5.593078E3,5.6676465E3,1.0846936E3,5.2777334E3,6.152358E2,-1.8473843E3,-5.420085E3,1.13051E3,-2.3914744E3,-5.918988E3,-1.0368052E4,-5.2054688E3,-8.814173E3,-1.0197788E4,-1.2686562E4,6.910974E2,9.053221E1,7.1677167E2,3.597556E2,2.5892706E2,4.797244E1,7.316601E2,3.5820056E2,8.722387E1,-3.0843079E1,8.8670944E1,-5.1177402E2,-4.1556494E2,-5.980715E2,5.306405E2,8.574598E1,4.2445908E1,-4.252835E2,-4.747006E2,-1.0364994E3,-9.2513574E2,-1.2521718E3,-2.9593182E2,-6.4763104E2,-7.17436E2,-9.5186615E2,-8.991269E2,-1.1646415E3,-1.1956693E3,-1.4088075E3],"categories":[],"categories_nodes":[],"categories_segments":[],"categories_sizes":[],"default_left":[0,0,0,0,0,0,0,0,0,0,0,0,0,0,0,0,0,0,0,0,0,0,0,0,0,0,0,0,0,0,0,0,0,0,0,0,0,0,0,0,0,0,0,0,0,0,0,0,0,0,0,0,0,0,0,0,0,0,0,0,0],"id":6,"left_children":[1,3,5,7,9,11,13,15,17,19,21,23,25,27,29,-1,31,33,35,37,39,41,43,45,47,49,51,53,55,57,59,-1,-1,-1,-1,-1,-1,-1,-1,-1,-1,-1,-1,-1,-1,-1,-1,-1,-1,-1,-1,-1,-1,-1,-1,-1,-1,-1,-1,-1,-1],"loss_changes":[1.6362317E11,3.399753E10,3.1882084E10,1.2302369E10,1.5968271E10,1.1618348E10,9.466937E9,5.646582E8,1.0628053E10,7.660927E9,2.4657398E9,3.182636E9,1.2601846E9,3.81295E9,9.076982E8,0E0,2.551426E9,2.7751772E9,1.05006515E9,1.5572654E9,3.6370534E8,3.4380585E9,2.5373696E8,6.8642874E8,2.3342587E9,9.460296E8,1.2946637E8,2.2729994E9,4.73514E8,7.62196E8,8.728166E7,0E0,0E0,0E0,0E0,0E0,0E0,0E0,0E0,0E0,0E0,0E0,0E0,0E0,0E0,0E0,0E0,0E0,0E0,0E0,0E0,0E0,0E0,0E0,0E0,0E0,0E0,0E0,0E0,0E0,0E0],"parents":[2147483647,0,0,1,1,2,2,3,3,4,4,5,5,6,6,7,7,8,8,9,9,10,10,11,11,12,12,13,13,14,14,16,16,17,17,18,18,19,19,20,20,21,21,22,22,23,23,24,24,25,25,26,26,27,27,28,28,29,29,30,30],"right_children":[2,4,6,8,10,12,14,16,18,20,22,24,26,28,30,-1,32,34,36,38,40,42,44,46,48,50,52,54,56,58,60,-1,-1,-1,-1,-1,-1,-1,-1,-1,-1,-1,-1,-1,-1,-1,-1,-1,-1,-1,-1,-1,-1,-1,-1,-1,-1,-1,-1,-1,-1],"split_conditions":[1.2681074E2,9.859623E1,8.257484E1,8.433978E1,9.066608E1,1.6804575E2,1.5713678E2,8.163796E1,7.156882E1,7.510622E1,1.11940865E2,1.4486098E2,7.8322174E1,9.3290985E1,1.8003703E2,6.9718256E2,8.8409615E1,9.320908E1,8.799795E1,1.11940865E2,8.7529274E1,9.672275E1,1.16983116E2,6.488019E1,7.526134E1,1.9575777E2,1.8674425E2,1.354387E2,1.3493628E2,9.0553986E1,2.0082771E2,6.910974E2,9.053221E1,7.1677167E2,3.597556E2,2.5892706E2,4.797244E1,7.316601E2,3.5820056E2,8.722387E1,-3.0843079E1,8.8670944E1,-5.1177402E2,-4.1556494E2,-5.980715E2,5.306405E2,8.574598E1,4.2445908E1,-4.252835E2,-4.747006E2,-1.0364994E3,-9.2513574E2,-1.2521718E3,-2.9593182E2,-6.4763104E2,-7.17436E2,-9.5186615E2,-8.991269E2,-1.1646415E3,-1.1956693E3,-1.4088075E3],"split_indices":[0,0,1,1,1,0,0,1,0,1,0,0,1,1,0,0,0,1,1,0,1,1,0,1,1,0,0,0,0,1,0,0,0,0,0,0,0,0,0,0,0,0,0,0,0,0,0,0,0,0,0,0,0,0,0,0,0,0,0,0,0],"split_type":[0,0,0,0,0,0,0,0,0,0,0,0,0,0,0,0,0,0,0,0,0,0,0,0,0,0,0,0,0,0,0,0,0,0,0,0,0,0,0,0,0,0,0,0,0,0,0,0,0,0,0,0,0,0,0,0,0,0,0,0,0],"sum_hessian":[1E4,6.646E3,3.354E3,3.884E3,2.762E3,1.34E3,2.014E3,1.829E3,2.055E3,1.987E3,7.75E2,1.049E3,2.91E2,1.27E3,7.44E2,1.416E3,4.13E2,9.01E2,1.154E3,4.57E2,1.53E3,3.83E2,3.92E2,6.05E2,4.44E2,1.9E2,1.01E2,8.02E2,4.68E2,4.95E2,2.49E2,3.22E2,9.1E1,5.21E2,3.8E2,3.3E2,8.24E2,2.06E2,2.51E2,1.197E3,3.33E2,2.09E2,1.74E2,1.23E2,2.69E2,3.6E1,5.69E2,1.77E2,2.67E2,1.52E2,3.8E1,7E1,3.1E1,2.91E2,5.11E2,1.44E2,3.24E2,2.74E2,2.21E2,1.7E2,7.9E1],"tree_param":{"num_deleted":"0","num_feature":"2","num_nodes":"61","size_leaf_vector":"1"}},{"base_weights":[-3.649532E0,2.9108943E3,-4.5657056E3,4.5131074E3,7.620261E2,-1.5575294E3,-7.115502E3,5.7945684E3,2.599567E3,4.8285195E3,-3.5226334E2,6.4413E2,-4.8686177E3,-5.26862E3,-9.587879E3,6.2869824E3,4.6463027E3,5.9676455E3,9.993876E2,6.703644E3,3.1630137E3,5.8681757E2,-3.2455022E3,4.421932E3,2.3967412E2,-3.1875432E3,-7.438538E3,-2.6320684E3,-6.548033E3,-8.694226E3,-1.1122541E4,6.1898956E2,6.7080304E2,6.219725E2,9.808641E1,7.259837E2,4.4573233E2,1.964907E2,1.2437812E1,7.0399994E2,5.54779E2,6.990068E2,8.0039444E1,1.4848393E2,2.8903156E1,-1.2073655E2,-4.4413443E2,6.812061E2,8.7286446E1,9.2408165E1,-1.0144433E2,-5.5098873E1,-4.9498877E2,1.0586432E2,-7.8863715E2,6.468617E1,-4.212773E2,-5.710085E2,-8.100121E2,-7.721001E2,-1.01914484E3,-1.0385775E3,-1.2547211E3],"categories":[],"categories_nodes":[],"categories_segments":[],"categories_sizes":[],"default_left":[0,0,0,0,0,0,0,0,0,0,0,0,0,0,0,0,0,0,0,0,0,0,0,0,0,0,0,0,0,0,0,0,0,0,0,0,0,0,0,0,0,0,0,0,0,0,0,0,0,0,0,0,0,0,0,0,0,0,0,0,0,0,0],"id":7,"left_children":[1,3,5,7,9,11,13,15,17,19,21,23,25,27,29,31,33,35,37,39,41,43,45,47,49,51,53,55,57,59,61,-1,-1,-1,-1,-1,-1,-1,-1,-1,-1,-1,-1,-1,-1,-1,-1,-1,-1,-1,-1,-1,-1,-1,-1,-1,-1,-1,-1,-1,-1,-1,-1],"loss_changes":[1.3298971E11,2.100885E10,2.989518E10,8.557568E9,1.1819205E10,1.3052035E10,9.584132E9,1.15422E9,7.5609344E9,1.730816E9,5.566291E9,1.6430191E9,3.0652518E9,4.064385E9,1.1389747E9,1.8239488E7,3.6388198E9,8.4977664E8,8.048869E8,6.3192064E7,2.6979254E9,4.132669E8,1.218157E9,8.7625766E8,8.3608986E8,2.0138609E9,1.0814474E9,2.0603843E9,1.0124124E9,7.5770675E8,2.1397094E8,0E0,0E0,0E0,0E0,0E0,0E0,0E0,0E0,0E0,0E0,0E0,0E0,0E0,0E0,0E0,0E0,0E0,0E0,0E0,0E0,0E0,0E0,0E0,0E0,0E0,0E0,0E0,0E0,0E0,0E0,0E0,0E0],"parents":[2147483647,0,0,1,1,2,2,3,3,4,4,5,5,6,6,7,7,8,8,9,9,10,10,11,11,12,12,13,13,14,14,15,15,16,16,17,17,18,18,19,19,20,20,21,21,22,22,23,23,24,24,25,25,26,26,27,27,28,28,29,29,30,30],"right_children":[2,4,6,8,10,12,14,16,18,20,22,24,26,28,30,32,34,36,38,40,42,44,46,48,50,52,54,56,58,60,62,-1,-1,-1,-1,-1,-1,-1,-1,-1,-1,-1,-1,-1,-1,-1,-1,-1,-1,-1,-1,-1,-1,-1,-1,-1,-1,-1,-1,-1,-1,-1,-1],"split_conditions":[1.21198746E2,9.4492004E1,8.397733E1,8.7529274E1,7.719595E1,1.491383E2,1.4988237E2,8.230316E1,6.0437893E1,1.0817656E2,9.396708E1,6.767506E1,1.7150206E2,8.858917E1,1.730469E2,8.484134E1,8.306316E1,4.719101E1,9.3290985E1,1.0499302E2,7.0915764E1,1.0101467E2,1.0499302E2,1.377287E2,8.013507E1,7.597585E1,6.488019E1,1.2895332E2,9.68913E1,9.320908E1,9.3047874E1,6.1898956E2,6.7080304E2,6.219725E2,9.808641E1,7.259837E2,4.4573233E2,1.964907E2,1.2437812E1,7.0399994E2,5.54779E2,6.990068E2,8.0039444E1,1.4848393E2,2.8903156E1,-1.2073655E2,-4.4413443E2,6.812061E2,8.7286446E1,9.2408165E1,-1.0144433E2,-5.5098873E1,-4.9498877E2,1.0586432E2,-7.8863715E2,6.468617E1,-4.212773E2,-5.710085E2,-8.100121E2,-7.721001E2,-1.01914484E3,-1.0385775E3,-1.2547211E3],"split_indices":[0,0,1,1,1,0,0,0,0,0,1,1,0,1,0,1,1,0,1,0,1,0,0,0,1,1,1,0,1,1,1,0,0,0,0,0,0,0,0,0,0,0,0,0,0,0,0,0,0,0,0,0,0,0,0,0,0,0,0,0,0,0,0],"split_type":[0,0,0,0,0,0,0,0,0,0,0,0,0,0,0,0,0,0,0,0,0,0,0,0,0,0,0,0,0,0,0,0,0,0,0,0,0,0,0,0,0,0,0,0,0,0,0,0,0,0,0,0,0,0,0,0,0,0,0,0,0,0,0],"sum_hessian":[1E4,6.102E3,3.898E3,3.495E3,2.607E3,1.789E3,2.109E3,2.092E3,1.403E3,5.6E2,2.047E3,1.075E3,7.14E2,1.209E3,9E2,1.461E3,6.31E2,4.51E2,9.52E2,2.62E2,2.98E2,1.546E3,5.01E2,1.03E2,9.72E2,4.33E2,2.81E2,3.96E2,8.13E2,5.73E2,3.27E2,1.2E3,2.61E2,4.41E2,1.9E2,2.41E2,2.1E2,4.52E2,5E2,1.99E2,6.3E1,1.13E2,1.85E2,3.84E2,1.162E3,1.86E2,3.15E2,6.1E1,4.2E1,6.29E2,3.43E2,1.74E2,2.59E2,1.4E1,2.67E2,1.29E2,2.67E2,5.31E2,2.82E2,3.51E2,2.22E2,2.21E2,1.06E2],"tree_param":{"num_deleted":"0","num_feature":"2","num_nodes":"63","size_leaf_vector":"1"}},{"base_weights":[-3.4099011E0,2.7084897E3,-3.9822888E3,4.322332E3,1.0779209E3,-1.8959269E3,-6.929388E3,5.352486E3,2.496484E3,3.9948052E3,-2.3120854E2,4.0965508E1,-5.228405E3,-5.045387E3,-8.72846E3,5.6771216E3,4.132105E3,5.294959E3,7.8953046E2,5.6511553E3,2.3441611E3,4.7223282E2,-2.4452244E3,1.1513549E3,-1.2902628E3,-2.3694773E3,-6.5531587E3,-4.134465E3,-6.531747E3,-7.89809E3,-1.0336012E4,5.56977E2,6.0222406E2,5.6428094E2,4.0994423E1,6.5272E2,3.609979E2,1.8577336E2,-9.264644E0,6.053927E2,4.3862033E2,6.010338E2,6.0868896E1,6.761814E1,-4.4073544E1,7.566592E1,-3.454768E2,4.126148E2,6.6025215E1,8.1007904E1,-3.4553333E2,-1.1667767E1,-4.3762808E2,-5.4841266E2,-8.954782E2,-3.7030612E2,-5.993663E2,-5.4024536E2,-6.855427E2,-7.228344E2,-9.3932385E2,-9.5954114E2,-1.1055685E3],"categories":[],"categories_nodes":[],"categories_segments":[],"categories_sizes":[],"default_left":[0,0,0,0,0,0,0,0,0,0,0,0,0,0,0,0,0,0,0,0,0,0,0,0,0,0,0,0,0,0,0,0,0,0,0,0,0,0,0,0,0,0,0,0,0,0,0,0,0,0,0,0,0,0,0,0,0,0,0,0,0,0,0],"id":8,"left_children":[1,3,5,7,9,11,13,15,17,19,21,23,25,27,29,31,33,35,37,39,41,43,45,47,49,51,53,55,57,59,61,-1,-1,-1,-1,-1,-1,-1,-1,-1,-1,-1,-1,-1,-1,-1,-1,-1,-1,-1,-1,-1,-1,-1,-1,-1,-1,-1,-1,-1,-1,-1,-1],"loss_changes":[1.07924775E11,1.5647388E10,2.491376E10,5.608661E9,1.1303919E10,1.5330013E10,5.6502436E9,7.3324134E8,5.1548344E9,2.493871E9,3.1845422E9,2.2231928E9,3.2908513E9,1.0873037E9,1.06367795E9,2.2257664E7,2.2750356E9,8.25644E8,6.334273E8,2.0628173E8,2.9294766E9,2.8927818E8,1.5962074E9,1.1952371E9,3.1132124E9,1.2563071E9,1.4810685E9,3.892644E8,7.664333E7,5.028823E8,4.7947776E7,0E0,0E0,0E0,0E0,0E0,0E0,0E0,0E0,0E0,0E0,0E0,0E0,0E0,0E0,0E0,0E0,0E0,0E0,0E0,0E0,0E0,0E0,0E0,0E0,0E0,0E0,0E0,0E0,0E0,0E0,0E0,0E0],"parents":[2147483647,0,0,1,1,2,2,3,3,4,4,5,5,6,6,7,7,8,8,9,9,10,10,11,11,12,12,13,13,14,14,15,15,16,16,17,17,18,18,19,19,20,20,21,21,22,22,23,23,24,24,25,25,26,26,27,27,28,28,29,29,30,30],"right_children":[2,4,6,8,10,12,14,16,18,20,22,24,26,28,30,32,34,36,38,40,42,44,46,48,50,52,54,56,58,60,62,-1,-1,-1,-1,-1,-1,-1,-1,-1,-1,-1,-1,-1,-1,-1,-1,-1,-1,-1,-1,-1,-1,-1,-1,-1,-1,-1,-1,-1,-1,-1,-1],"split_conditions":[1.19448944E2,8.876525E1,8.696638E1,8.858917E1,8.0045166E1,1.5129558E2,1.4372421E2,8.1161194E1,6.0437893E1,1.0499302E2,9.467523E1,8.013507E1,7.597585E1,9.575021E1,1.6917928E2,8.484134E1,8.4238144E1,4.8287872E1,9.381696E1,7.777165E1,7.208544E1,9.149605E1,9.663691E1,6.767506E1,1.3305806E2,1.6804575E2,1.767969E2,1.3861972E2,1.2441475E2,9.672275E1,9.2577545E1,5.56977E2,6.0222406E2,5.6428094E2,4.0994423E1,6.5272E2,3.609979E2,1.8577336E2,-9.264644E0,6.053927E2,4.3862033E2,6.010338E2,6.0868896E1,6.761814E1,-4.4073544E1,7.566592E1,-3.454768E2,4.126148E2,6.6025215E1,8.1007904E1,-3.4553333E2,-1.1667767E1,-4.3762808E2,-5.4841266E2,-8.954782E2,-3.7030612E2,-5.993663E2,-5.4024536E2,-6.855427E2,-7.228344E2,-9.3932385E2,-9.5954114E2,-1.1055685E3],"split_indices":[0,0,1,1,1,0,0,0,0,0,1,1,1,1,0,1,1,0,1,1,1,1,0,1,0,0,0,0,0,1,1,0,0,0,0,0,0,0,0,0,0,0,0,0,0,0,0,0,0,0,0,0,0,0,0,0,0,0,0,0,0,0,0],"split_type":[0,0,0,0,0,0,0,0,0,0,0,0,0,0,0,0,0,0,0,0,0,0,0,0,0,0,0,0,0,0,0,0,0,0,0,0,0,0,0,0,0,0,0,0,0,0,0,0,0,0,0,0,0,0,0,0,0,0,0,0,0,0,0],"sum_hessian":[1E4,5.947E3,4.053E3,2.988E3,2.959E3,2.374E3,1.679E3,1.909E3,1.079E3,9.16E2,2.043E3,1.502E3,8.72E2,8.22E2,8.57E2,1.505E3,4.04E2,4.08E2,6.71E2,4.56E2,4.6E2,1.551E3,4.92E2,8.19E2,6.83E2,2.77E2,5.95E2,5.12E2,3.1E2,5.69E2,2.88E2,1.161E3,3.44E2,2.87E2,1.17E2,2.34E2,1.74E2,3.03E2,3.68E2,3.43E2,1.13E2,1.47E2,3.13E2,1.268E3,2.83E2,1.18E2,3.74E2,1.15E2,7.04E2,3.47E2,3.36E2,1.31E2,1.46E2,4.14E2,1.81E2,4.18E2,9.4E1,7.3E1,2.37E2,3.97E2,1.72E2,1.49E2,1.39E2],"tree_param":{"num_deleted":"0","num_feature":"2","num_nodes":"63","size_leaf_vector":"1"}},{"base_weights":[-3.387497E0,2.0995396E3,-4.169752E3,3.496357E3,1.3474202E2,-1.3683188E3,-6.0320605E3,4.927536E3,2.2800295E3,1.2459521E3,-2.7121917E3,-1.09045715E2,-5.164663E3,-4.7872373E3,-8.1476816E3,5.1278047E3,4.143003E3,4.193159E3,7.787472E2,3.9718672E3,4.5266483E2,-1.2711302E3,-4.1133506E3,1.0541869E3,-1.4696682E3,2.5452314E3,-5.6118887E3,-2.538217E3,-5.5894634E3,-7.6445723E3,-9.730777E3,4.1439194E2,5.158534E2,5.172541E2,4.890955E1,4.9434024E2,1.5210101E2,1.8961699E2,2.9697287E1,5.6886255E2,2.685539E2,6.3923306E1,-2.2346403E1,9.730203E1,-3.9568475E2,-3.7333463E2,-5.094172E2,4.0478906E2,8.5917435E1,4.017511E0,-3.5420563E2,5.5692566E2,-4.9350323E2,-4.870754E2,-9.1976953E2,1.0502759E2,-3.89556E2,-4.8468317E2,-6.859242E2,-6.898024E2,-8.930231E2,-8.8961615E2,-1.0621116E3],"categories":[],"categories_nodes":[],"categories_segments":[],"categories_sizes":[],"default_left":[0,0,0,0,0,0,0,0,0,0,0,0,0,0,0,0,0,0,0,0,0,0,0,0,0,0,0,0,0,0,0,0,0,0,0,0,0,0,0,0,0,0,0,0,0,0,0,0,0,0,0,0,0,0,0,0,0,0,0,0,0,0,0],"id":9,"left_children":[1,3,5,7,9,11,13,15,17,19,21,23,25,27,29,31,33,35,37,39,41,43,45,47,49,51,53,55,57,59,61,-1,-1,-1,-1,-1,-1,-1,-1,-1,-1,-1,-1,-1,-1,-1,-1,-1,-1,-1,-1,-1,-1,-1,-1,-1,-1,-1,-1,-1,-1,-1,-1],"loss_changes":[8.763312E10,1.824198E10,1.7495228E10,6.751703E9,8.744244E9,6.4102666E9,5.2676444E9,2.5905152E8,6.0339896E9,4.2971203E9,1.5616369E9,1.5969315E9,1.1659366E9,2.2789816E9,5.1898368E8,2.146304E7,1.3818271E9,1.8448794E9,6.341463E8,9.7404826E8,1.9453094E8,2.318277E9,1.2745882E8,3.1411462E8,1.4551183E9,4.5727408E8,7.9499264E8,1.640685E9,8.493793E8,4.854907E8,3.6296704E7,0E0,0E0,0E0,0E0,0E0,0E0,0E0,0E0,0E0,0E0,0E0,0E0,0E0,0E0,0E0,0E0,0E0,0E0,0E0,0E0,0E0,0E0,0E0,0E0,0E0,0E0,0E0,0E0,0E0,0E0,0E0,0E0],"parents":[2147483647,0,0,1,1,2,2,3,3,4,4,5,5,6,6,7,7,8,8,9,9,10,10,11,11,12,12,13,13,14,14,15,15,16,16,17,17,18,18,19,19,20,20,21,21,22,22,23,23,24,24,25,25,26,26,27,27,28,28,29,29,30,30],"right_children":[2,4,6,8,10,12,14,16,18,20,22,24,26,28,30,32,34,36,38,40,42,44,46,48,50,52,54,56,58,60,62,-1,-1,-1,-1,-1,-1,-1,-1,-1,-1,-1,-1,-1,-1,-1,-1,-1,-1,-1,-1,-1,-1,-1,-1,-1,-1,-1,-1,-1,-1,-1,-1],"split_conditions":[1.2681074E2,9.859623E1,8.257484E1,8.406391E1,9.066608E1,1.6491394E2,1.5713678E2,8.163796E1,7.156882E1,7.497891E1,1.11940865E2,1.4267348E2,6.488019E1,8.6535286E1,1.8674425E2,6.282391E1,8.8409615E1,9.708323E1,8.799795E1,6.992447E1,8.7529274E1,9.672275E1,9.919845E1,6.488019E1,7.797273E1,1.923938E2,1.9575777E2,1.3305806E2,9.554183E1,9.247059E1,2.0082771E2,4.1439194E2,5.158534E2,5.172541E2,4.890955E1,4.9434024E2,1.5210101E2,1.8961699E2,2.9697287E1,5.6886255E2,2.685539E2,6.3923306E1,-2.2346403E1,9.730203E1,-3.9568475E2,-3.7333463E2,-5.094172E2,4.0478906E2,8.5917435E1,4.017511E0,-3.5420563E2,5.5692566E2,-4.9350323E2,-4.870754E2,-9.1976953E2,1.0502759E2,-3.89556E2,-4.8468317E2,-6.859242E2,-6.898024E2,-8.930231E2,-8.8961615E2,-1.0621116E3],"split_indices":[0,0,1,1,1,0,0,1,0,1,0,0,1,1,0,1,0,1,1,1,1,1,1,1,1,0,0,0,1,1,0,0,0,0,0,0,0,0,0,0,0,0,0,0,0,0,0,0,0,0,0,0,0,0,0,0,0,0,0,0,0,0,0],"split_type":[0,0,0,0,0,0,0,0,0,0,0,0,0,0,0,0,0,0,0,0,0,0,0,0,0,0,0,0,0,0,0,0,0,0,0,0,0,0,0,0,0,0,0,0,0,0,0,0,0,0,0,0,0,0,0,0,0,0,0,0,0,0,0],"sum_hessian":[1E4,6.646E3,3.354E3,3.884E3,2.762E3,1.34E3,2.014E3,1.783E3,2.101E3,1.987E3,7.75E2,1.007E3,3.33E2,1.27E3,7.44E2,1.416E3,3.67E2,9.23E2,1.178E3,4.47E2,1.54E3,3.83E2,3.92E2,5.43E2,4.64E2,1.8E1,3.15E2,3.35E2,9.35E2,5.69E2,1.75E2,4.7E1,1.369E3,2.86E2,8.1E1,7.2E2,2.03E2,3.54E2,8.24E2,1.9E2,2.57E2,1.207E3,3.33E2,2.09E2,1.74E2,2.86E2,1.06E2,3.2E1,5.11E2,2.69E2,1.95E2,1.3E1,5E0,2.63E2,5.2E1,9.2E1,2.43E2,5.93E2,3.42E2,3.64E2,2.05E2,9.6E1,7.9E1],"tree_param":{"num_deleted":"0","num_feature":"2","num_nodes":"63","size_leaf_vector":"1"}},{"base_weights":[-3.4618046E0,2.331527E3,-3.0658743E3,3.8134875E3,1.2692058E3,-1.387482E3,-5.428114E3,4.5504976E3,1.8110189E3,3.4032512E3,-2.9267632E1,2.0433768E2,-4.081939E3,-3.862453E3,-7.13708E3,4.6775137E3,3.875577E3,5.6441377E3,2.1270607E2,4.689589E3,2.2699514E3,4.2291302E2,-1.7311577E3,3.3952842E3,-8.172137E1,-1.4791203E1,-4.763989E3,-1.8150912E3,-4.3786978E3,-6.4828496E3,-8.530255E3,4.4935474E2,5.182852E2,4.9752286E2,-8.18803E1,6.0380896E2,3.3680576E2,1.3052882E2,-9.454045E1,4.8598322E2,3.8926837E2,4.5570288E2,5.9320076E1,6.5013756E1,-7.1338463E0,7.569662E1,-3.2715976E2,5.693065E2,1.1827361E2,6.1654858E1,-8.1010956E1,7.068853E1,-5.471545E2,-3.6818137E2,-6.6025854E2,2.0763911E2,-3.172549E2,-3.8064893E2,-5.214933E2,-6.0450854E2,-8.088664E2,-7.9439716E2,-9.212365E2],"categories":[],"categories_nodes":[],"categories_segments":[],"categories_sizes":[],"default_left":[0,0,0,0,0,0,0,0,0,0,0,0,0,0,0,0,0,0,0,0,0,0,0,0,0,0,0,0,0,0,0,0,0,0,0,0,0,0,0,0,0,0,0,0,0,0,0,0,0,0,0,0,0,0,0,0,0,0,0,0,0,0,0],"id":10,"left_children":[1,3,5,7,9,11,13,15,17,19,21,23,25,27,29,31,33,35,37,39,41,43,45,47,49,51,53,55,57,59,61,-1,-1,-1,-1,-1,-1,-1,-1,-1,-1,-1,-1,-1,-1,-1,-1,-1,-1,-1,-1,-1,-1,-1,-1,-1,-1,-1,-1,-1,-1,-1,-1],"loss_changes":[7.152128E10,8.929417E9,1.7148002E10,3.4880225E9,9.163801E9,1.085652E10,4.780597E9,1.3026099E8,3.9136476E9,1.8130708E9,1.5837207E9,1.4534537E9,2.607488E9,9.8557645E8,7.267328E8,1.1169382E8,1.4494845E9,1.482368E8,5.731636E8,6.0447744E7,2.5551475E9,1.8265603E8,1.6582481E9,6.592641E8,7.4408966E8,5.394372E8,1.577386E9,1.0155495E9,3.390249E8,3.644498E8,3.519283E7,0E0,0E0,0E0,0E0,0E0,0E0,0E0,0E0,0E0,0E0,0E0,0E0,0E0,0E0,0E0,0E0,0E0,0E0,0E0,0E0,0E0,0E0,0E0,0E0,0E0,0E0,0E0,0E0,0E0,0E0,0E0,0E0],"parents":[2147483647,0,0,1,1,2,2,3,3,4,4,5,5,6,6,7,7,8,8,9,9,10,10,11,11,12,12,13,13,14,14,15,15,16,16,17,17,18,18,19,19,20,20,21,21,22,22,23,23,24,24,25,25,26,26,27,27,28,28,29,29,30,30],"right_children":[2,4,6,8,10,12,14,16,18,20,22,24,26,28,30,32,34,36,38,40,42,44,46,48,50,52,54,56,58,60,62,-1,-1,-1,-1,-1,-1,-1,-1,-1,-1,-1,-1,-1,-1,-1,-1,-1,-1,-1,-1,-1,-1,-1,-1,-1,-1,-1,-1,-1,-1,-1,-1],"split_conditions":[1.16983116E2,8.1161194E1,8.696638E1,9.174144E1,8.2187965E1,1.491383E2,1.4372421E2,7.601116E1,5.0577583E1,9.859623E1,9.654235E1,6.817933E1,7.116141E1,8.955176E1,1.7015971E2,8.6112236E1,8.718569E1,4.719101E1,9.654235E1,8.0045166E1,7.510622E1,1.06282234E2,9.623608E1,1.3021881E2,8.013507E1,1.923938E2,1.730469E2,1.2232202E2,9.654235E1,9.919845E1,9.3047874E1,4.4935474E2,5.182852E2,4.9752286E2,-8.18803E1,6.0380896E2,3.3680576E2,1.3052882E2,-9.454045E1,4.8598322E2,3.8926837E2,4.5570288E2,5.9320076E1,6.5013756E1,-7.1338463E0,7.569662E1,-3.2715976E2,5.693065E2,1.1827361E2,6.1654858E1,-8.1010956E1,7.068853E1,-5.471545E2,-3.6818137E2,-6.6025854E2,2.0763911E2,-3.172549E2,-3.8064893E2,-5.214933E2,-6.0450854E2,-8.088664E2,-7.9439716E2,-9.212365E2],"split_indices":[0,0,1,1,1,0,0,0,0,0,1,1,1,1,0,1,1,0,1,1,1,0,0,0,1,0,0,0,1,1,1,0,0,0,0,0,0,0,0,0,0,0,0,0,0,0,0,0,0,0,0,0,0,0,0,0,0,0,0,0,0,0,0],"split_type":[0,0,0,0,0,0,0,0,0,0,0,0,0,0,0,0,0,0,0,0,0,0,0,0,0,0,0,0,0,0,0,0,0,0,0,0,0,0,0,0,0,0,0,0,0,0,0,0,0,0,0,0,0,0,0,0,0,0,0,0,0,0,0],"sum_hessian":[1E4,5.674E3,4.326E3,2.368E3,3.306E3,2.53E3,1.796E3,1.73E3,6.38E2,1.25E3,2.056E3,1.591E3,9.39E2,9.39E2,8.57E2,1.451E3,2.79E2,1.87E2,4.51E2,5.84E2,6.66E2,1.625E3,4.31E2,1.3E2,1.461E3,1.35E2,8.04E2,1.9E2,7.49E2,5.87E2,2.7E2,1.071E3,3.8E2,2.26E2,5.3E1,1.58E2,2.9E1,2.32E2,2.19E2,4.77E2,1.07E2,2.81E2,3.85E2,1.113E3,5.12E2,1.65E2,2.66E2,6.3E1,6.7E1,7.46E2,7.15E2,1.2E2,1.5E1,5.08E2,2.96E2,4.9E1,1.41E2,4.48E2,3.01E2,4.65E2,1.22E2,1.52E2,1.18E2],"tree_param":{"num_deleted":"0","num_feature":"2","num_nodes":"63","size_leaf_vector":"1"}},{"base_weights":[-3.2576706E0,1.8288564E3,-3.1710896E3,2.9708518E3,4.234218E2,-1.1490359E3,-4.866887E3,3.8297498E3,1.6883419E3,3.1074146E3,-3.2688556E2,-1.0363611E2,-4.3177334E3,-3.5474573E3,-6.3263735E3,4.1554683E3,3.070209E3,3.9395845E3,5.2936444E2,4.730056E3,1.9100272E3,3.944432E2,-2.142245E3,7.826762E2,-1.3123517E3,-3.1124995E3,-6.4710093E3,-1.922851E3,-4.2708364E3,-5.772444E3,-7.4697925E3,4.0540268E2,4.6046115E2,4.1687418E2,5.119802E1,4.7129263E2,1.5197899E2,1.3993214E2,1.1563986E1,4.1760294E2,5.498768E2,4.7107867E2,1.6041094E1,9.804426E1,2.37365E1,-3.903744E1,-3.070258E2,3.9447897E2,5.5831726E1,3.3580795E1,-3.0056555E2,-2.4668611E2,-7.7969934E2,-3.7984048E2,-6.907509E2,6.555642E1,-3.1220956E2,-3.5701215E2,-5.20264E2,-5.1681934E2,-6.945664E2,-7.00889E2,-8.7435187E2],"categories":[],"categories_nodes":[],"categories_segments":[],"categories_sizes":[],"default_left":[0,0,0,0,0,0,0,0,0,0,0,0,0,0,0,0,0,0,0,0,0,0,0,0,0,0,0,0,0,0,0,0,0,0,0,0,0,0,0,0,0,0,0,0,0,0,0,0,0,0,0,0,0,0,0,0,0,0,0,0,0,0,0],"id":11,"left_children":[1,3,5,7,9,11,13,15,17,19,21,23,25,27,29,31,33,35,37,39,41,43,45,47,49,51,53,55,57,59,61,-1,-1,-1,-1,-1,-1,-1,-1,-1,-1,-1,-1,-1,-1,-1,-1,-1,-1,-1,-1,-1,-1,-1,-1,-1,-1,-1,-1,-1,-1,-1,-1],"loss_changes":[5.8049896E10,1.0169627E10,1.256167E10,3.8445343E9,5.724291E9,5.541458E9,3.8154568E9,5.050409E8,3.6611464E9,1.197525E9,2.9104893E9,1.3497933E9,1.05686784E9,1.2245791E9,5.554176E8,4.794368E7,1.7739735E9,8.85461E8,3.338463E8,8.90455E7,1.7584356E9,1.4621523E8,1.0262807E9,5.1356662E8,1.4885243E9,7.913288E8,1.4641715E8,1.0069957E9,4.5479936E8,4.1851904E8,1.1777331E8,0E0,0E0,0E0,0E0,0E0,0E0,0E0,0E0,0E0,0E0,0E0,0E0,0E0,0E0,0E0,0E0,0E0,0E0,0E0,0E0,0E0,0E0,0E0,0E0,0E0,0E0,0E0,0E0,0E0,0E0,0E0,0E0],"parents":[2147483647,0,0,1,1,2,2,3,3,4,4,5,5,6,6,7,7,8,8,9,9,10,10,11,11,12,12,13,13,14,14,15,15,16,16,17,17,18,18,19,19,20,20,21,21,22,22,23,23,24,24,25,25,26,26,27,27,28,28,29,29,30,30],"right_children":[2,4,6,8,10,12,14,16,18,20,22,24,26,28,30,32,34,36,38,40,42,44,46,48,50,52,54,56,58,60,62,-1,-1,-1,-1,-1,-1,-1,-1,-1,-1,-1,-1,-1,-1,-1,-1,-1,-1,-1,-1,-1,-1,-1,-1,-1,-1,-1,-1,-1,-1,-1,-1],"split_conditions":[1.2343389E2,9.4492004E1,8.397733E1,8.7529274E1,7.719595E1,1.6290977E2,1.4867229E2,8.230316E1,6.221908E1,1.0817656E2,9.2838234E1,1.4134358E2,7.9460655E1,8.829823E1,1.742248E2,8.484134E1,8.306316E1,9.8055824E1,9.149605E1,7.3372894E1,7.0915764E1,1.0067166E2,1.0499302E2,6.620533E1,7.797273E1,2.0082771E2,1.6573817E2,1.2984796E2,1.3692726E2,9.417367E1,2.0082771E2,4.0540268E2,4.6046115E2,4.1687418E2,5.119802E1,4.7129263E2,1.5197899E2,1.3993214E2,1.1563986E1,4.1760294E2,5.498768E2,4.7107867E2,1.6041094E1,9.804426E1,2.37365E1,-3.903744E1,-3.070258E2,3.9447897E2,5.5831726E1,3.3580795E1,-3.0056555E2,-2.4668611E2,-7.7969934E2,-3.7984048E2,-6.907509E2,6.555642E1,-3.1220956E2,-3.5701215E2,-5.20264E2,-5.1681934E2,-6.945664E2,-7.00889E2,-8.7435187E2],"split_indices":[0,0,1,1,1,0,0,0,0,0,1,0,1,1,0,1,1,1,1,1,1,0,0,1,1,0,0,0,0,1,0,0,0,0,0,0,0,0,0,0,0,0,0,0,0,0,0,0,0,0,0,0,0,0,0,0,0,0,0,0,0,0,0],"split_type":[0,0,0,0,0,0,0,0,0,0,0,0,0,0,0,0,0,0,0,0,0,0,0,0,0,0,0,0,0,0,0,0,0,0,0,0,0,0,0,0,0,0,0,0,0,0,0,0,0,0,0,0,0,0,0,0,0,0,0,0,0,0,0],"sum_hessian":[1E4,6.336E3,3.664E3,3.495E3,2.841E3,1.672E3,1.992E3,2.092E3,1.403E3,6.2E2,2.221E3,1.258E3,4.14E2,1.048E3,9.44E2,1.461E3,6.31E2,4.76E2,9.27E2,2.62E2,3.58E2,1.59E3,6.31E2,7.26E2,5.32E2,2.67E2,1.47E2,3.24E2,7.24E2,6.4E2,3.04E2,1.2E3,2.61E2,4.41E2,1.9E2,3.6E2,1.16E2,2.98E2,6.29E2,1.56E2,1.06E2,1.37E2,2.21E2,3.35E2,1.255E3,2.19E2,4.12E2,4.7E1,6.79E2,2.7E2,2.62E2,2.36E2,3.1E1,2.2E1,1.25E2,1.03E2,2.21E2,4.16E2,3.08E2,4.26E2,2.14E2,2.28E2,7.6E1],"tree_param":{"num_deleted":"0","num_feature":"2","num_nodes":"63","size_leaf_vector":"1"}},{"base_weights":[-3.1804545E0,1.8042871E3,-2.615832E3,3.0967324E3,9.3983795E2,-1.1260844E3,-4.4441353E3,3.6994573E3,1.4591527E3,2.6270037E3,-9.577389E1,-4.706154E1,-3.7280742E3,-3.341896E3,-5.9321133E3,3.8082053E3,3.1223096E3,4.724644E3,9.771131E1,3.5793208E3,1.4230347E3,2.2162729E2,-1.6636484E3,6.892633E2,-1.1270078E3,4.9264618E1,-4.3543867E3,-1.7276355E3,-3.8825605E3,-5.3423345E3,-6.8529165E3,3.634451E2,4.2870932E2,4.0675488E2,-9.0901596E1,5.0741788E2,2.7146216E2,1.0552852E2,-9.1689064E1,3.9045493E2,2.3894498E2,3.4454095E2,5.627663E-1,5.204557E1,-3.0674362E1,7.590206E1,-3.0105026E2,4.5247876E2,3.7867004E1,2.9195028E1,-2.987899E2,8.640746E1,-4.3539938E2,-3.793468E2,-6.874325E2,2.3160124E2,-2.3276358E2,-3.2663797E2,-4.7792944E2,-4.7014575E2,-6.20852E2,-5.720032E2,-7.158995E2],"categories":[],"categories_nodes":[],"categories_segments":[],"categories_sizes":[],"default_left":[0,0,0,0,0,0,0,0,0,0,0,0,0,0,0,0,0,0,0,0,0,0,0,0,0,0,0,0,0,0,0,0,0,0,0,0,0,0,0,0,0,0,0,0,0,0,0,0,0,0,0,0,0,0,0,0,0,0,0,0,0,0,0],"id":12,"left_children":[1,3,5,7,9,11,13,15,17,19,21,23,25,27,29,31,33,35,37,39,41,43,45,47,49,51,53,55,57,59,61,-1,-1,-1,-1,-1,-1,-1,-1,-1,-1,-1,-1,-1,-1,-1,-1,-1,-1,-1,-1,-1,-1,-1,-1,-1,-1,-1,-1,-1,-1,-1,-1],"loss_changes":[4.7232266E10,6.602289E9,1.113497E10,2.3328276E9,6.192502E9,6.330978E9,2.9914153E9,9.675571E7,2.8403886E9,1.5404698E9,1.0936952E9,1.2691068E9,1.5640044E9,9.158144E8,3.8698394E8,1.0523648E8,1.0706565E9,1.1830886E8,4.4011104E8,2.8167885E8,1.7112979E9,2.8878662E8,1.2095885E9,1.1288188E9,1.7092928E9,3.4460493E8,7.753656E8,6.531833E8,4.2145587E8,2.3726797E8,6.342144E7,0E0,0E0,0E0,0E0,0E0,0E0,0E0,0E0,0E0,0E0,0E0,0E0,0E0,0E0,0E0,0E0,0E0,0E0,0E0,0E0,0E0,0E0,0E0,0E0,0E0,0E0,0E0,0E0,0E0,0E0,0E0,0E0],"parents":[2147483647,0,0,1,1,2,2,3,3,4,4,5,5,6,6,7,7,8,8,9,9,10,10,11,11,12,12,13,13,14,14,15,15,16,16,17,17,18,18,19,19,20,20,21,21,22,22,23,23,24,24,25,25,26,26,27,27,28,28,29,29,30,30],"right_children":[2,4,6,8,10,12,14,16,18,20,22,24,26,28,30,32,34,36,38,40,42,44,46,48,50,52,54,56,58,60,62,-1,-1,-1,-1,-1,-1,-1,-1,-1,-1,-1,-1,-1,-1,-1,-1,-1,-1,-1,-1,-1,-1,-1,-1,-1,-1,-1,-1,-1,-1,-1,-1],"split_conditions":[1.19081154E2,8.1161194E1,8.6112236E1,9.174144E1,8.2187965E1,1.5713678E2,1.4867229E2,7.601116E1,5.0577583E1,1.0324713E2,9.770846E1,1.377287E2,7.065419E1,8.955176E1,1.7015971E2,8.6112236E1,8.718569E1,4.719101E1,9.654235E1,7.9730446E1,7.497891E1,1.06282234E2,9.623608E1,6.767506E1,7.983232E1,1.923938E2,1.9009709E2,1.2232202E2,1.354387E2,9.417367E1,8.858917E1,3.634451E2,4.2870932E2,4.0675488E2,-9.0901596E1,5.0741788E2,2.7146216E2,1.0552852E2,-9.1689064E1,3.9045493E2,2.3894498E2,3.4454095E2,5.627663E-1,5.204557E1,-3.0674362E1,7.590206E1,-3.0105026E2,4.5247876E2,3.7867004E1,2.9195028E1,-2.987899E2,8.640746E1,-4.3539938E2,-3.793468E2,-6.874325E2,2.3160124E2,-2.3276358E2,-3.2663797E2,-4.7792944E2,-4.7014575E2,-6.20852E2,-5.720032E2,-7.158995E2],"split_indices":[0,0,1,1,1,0,0,0,0,0,1,0,1,1,0,1,1,0,1,1,1,0,0,1,1,0,0,0,0,1,1,0,0,0,0,0,0,0,0,0,0,0,0,0,0,0,0,0,0,0,0,0,0,0,0,0,0,0,0,0,0,0,0],"split_type":[0,0,0,0,0,0,0,0,0,0,0,0,0,0,0,0,0,0,0,0,0,0,0,0,0,0,0,0,0,0,0,0,0,0,0,0,0,0,0,0,0,0,0,0,0,0,0,0,0,0,0,0,0,0,0,0,0,0,0,0,0,0,0],"sum_hessian":[1E4,5.911E3,4.089E3,2.368E3,3.543E3,2.254E3,1.835E3,1.73E3,6.38E2,1.347E3,2.196E3,1.594E3,6.6E2,1.056E3,7.79E2,1.451E3,2.79E2,1.87E2,4.51E2,7.51E2,5.96E2,1.827E3,3.69E2,9.48E2,6.46E2,9.4E1,5.66E2,2.66E2,7.9E2,4.79E2,3E2,1.071E3,3.8E2,2.26E2,5.3E1,1.58E2,2.9E1,2.32E2,2.19E2,5.88E2,1.63E2,2.45E2,3.51E2,1.167E3,6.6E2,1.32E2,2.37E2,7E1,8.78E2,3.67E2,2.79E2,8E1,1.4E1,4.65E2,1.01E2,3.4E1,2.32E2,4.71E2,3.19E2,2.79E2,2E2,6.8E1,2.32E2],"tree_param":{"num_deleted":"0","num_feature":"2","num_nodes":"63","size_leaf_vector":"1"}},{"base_weights":[-3.0331168E0,1.7075355E3,-2.2464983E3,2.7878613E3,9.3311786E2,-1.0594183E3,-4.0873877E3,3.3301514E3,1.314478E3,2.503886E3,-2.2625477E1,6.342976E1,-3.1771401E3,-2.9514531E3,-5.3350884E3,3.4279297E3,2.8112075E3,4.2563223E3,8.797086E1,3.4723552E3,1.6507249E3,2.8190707E2,-1.488447E3,2.1405112E3,-1.8208469E2,-6.5922955E2,-3.8565488E3,-1.6984292E3,-3.3728545E3,-4.796636E3,-6.2435522E3,3.271345E2,3.8595078E2,3.6625867E2,-8.19797E1,4.569952E2,2.4522087E2,9.5020935E1,-8.25618E1,3.0285187E2,3.768046E2,2.963491E2,-1.1924007E1,1.06291504E2,1.6358992E1,6.836889E1,-2.783067E2,3.9569077E2,6.4462E1,2.071057E1,-1.1872206E2,-6.3147063E0,-4.9036862E2,-3.283508E2,-5.563731E2,1.4197429E2,-2.397158E2,-2.9614658E2,-4.356373E2,-4.4760962E2,-5.9791156E2,-5.8838617E2,-7.5119946E2],"categories":[],"categories_nodes":[],"categories_segments":[],"categories_sizes":[],"default_left":[0,0,0,0,0,0,0,0,0,0,0,0,0,0,0,0,0,0,0,0,0,0,0,0,0,0,0,0,0,0,0,0,0,0,0,0,0,0,0,0,0,0,0,0,0,0,0,0,0,0,0,0,0,0,0,0,0,0,0,0,0,0,0],"id":13,"left_children":[1,3,5,7,9,11,13,15,17,19,21,23,25,27,29,31,33,35,37,39,41,43,45,47,49,51,53,55,57,59,61,-1,-1,-1,-1,-1,-1,-1,-1,-1,-1,-1,-1,-1,-1,-1,-1,-1,-1,-1,-1,-1,-1,-1,-1,-1,-1,-1,-1,-1,-1,-1,-1],"loss_changes":[3.838369E10,4.7452375E9,9.451391E9,1.8884547E9,4.964695E9,6.258781E9,2.3880049E9,7.819878E7,2.305261E9,1.0279199E9,9.1864454E8,8.780197E8,1.5576074E9,4.64214E8,3.648082E8,8.549888E7,8.685837E8,9.516826E7,3.568391E8,6.5362944E7,1.5501609E9,1.57287E8,9.9738285E8,4.9196723E8,6.026773E8,4.9304934E8,6.841395E8,4.9580224E8,2.5616333E8,1.6692122E8,9.130598E7,0E0,0E0,0E0,0E0,0E0,0E0,0E0,0E0,0E0,0E0,0E0,0E0,0E0,0E0,0E0,0E0,0E0,0E0,0E0,0E0,0E0,0E0,0E0,0E0,0E0,0E0,0E0,0E0,0E0,0E0,0E0,0E0],"parents":[2147483647,0,0,1,1,2,2,3,3,4,4,5,5,6,6,7,7,8,8,9,9,10,10,11,11,12,12,13,13,14,14,15,15,16,16,17,17,18,18,19,19,20,20,21,21,22,22,23,23,24,24,25,25,26,26,27,27,28,28,29,29,30,30],"right_children":[2,4,6,8,10,12,14,16,18,20,22,24,26,28,30,32,34,36,38,40,42,44,46,48,50,52,54,56,58,60,62,-1,-1,-1,-1,-1,-1,-1,-1,-1,-1,-1,-1,-1,-1,-1,-1,-1,-1,-1,-1,-1,-1,-1,-1,-1,-1,-1,-1,-1,-1,-1,-1],"split_conditions":[1.16983116E2,8.1161194E1,8.765257E1,9.174144E1,8.2187965E1,1.5129558E2,1.4372421E2,7.601116E1,5.0577583E1,9.859623E1,9.770846E1,6.992447E1,7.384874E1,9.066608E1,1.6804575E2,8.6112236E1,8.718569E1,4.719101E1,9.654235E1,7.538238E1,7.729001E1,8.397733E1,9.623608E1,1.2895332E2,1.3861972E2,1.923938E2,1.8003703E2,1.20743744E2,1.3493628E2,9.975454E1,9.786948E1,3.271345E2,3.8595078E2,3.6625867E2,-8.19797E1,4.569952E2,2.4522087E2,9.5020935E1,-8.25618E1,3.0285187E2,3.768046E2,2.963491E2,-1.1924007E1,1.06291504E2,1.6358992E1,6.836889E1,-2.783067E2,3.9569077E2,6.4462E1,2.071057E1,-1.1872206E2,-6.3147063E0,-4.9036862E2,-3.283508E2,-5.563731E2,1.4197429E2,-2.397158E2,-2.9614658E2,-4.356373E2,-4.4760962E2,-5.9791156E2,-5.8838617E2,-7.5119946E2],"split_indices":[0,0,1,1,1,0,0,0,0,0,1,1,1,1,0,1,1,0,1,1,1,1,0,0,0,0,0,0,0,1,1,0,0,0,0,0,0,0,0,0,0,0,0,0,0,0,0,0,0,0,0,0,0,0,0,0,0,0,0,0,0,0,0],"split_type":[0,0,0,0,0,0,0,0,0,0,0,0,0,0,0,0,0,0,0,0,0,0,0,0,0,0,0,0,0,0,0,0,0,0,0,0,0,0,0,0,0,0,0,0,0,0,0,0,0,0,0,0,0,0,0,0,0,0,0,0,0,0,0],"sum_hessian":[1E4,5.674E3,4.326E3,2.368E3,3.306E3,2.631E3,1.695E3,1.73E3,6.38E2,1.25E3,2.056E3,1.72E3,9.11E2,8.89E2,8.06E2,1.451E3,2.79E2,1.87E2,4.51E2,5.84E2,6.66E2,1.703E3,3.53E2,1.81E2,1.539E3,1.94E2,7.17E2,2.25E2,6.64E2,5.1E2,2.96E2,1.071E3,3.8E2,2.26E2,5.3E1,1.58E2,2.9E1,2.32E2,2.19E2,2.38E2,3.46E2,3.82E2,2.84E2,2.23E2,1.48E3,1.32E2,2.21E2,8.1E1,1E2,1.11E3,4.29E2,1.71E2,2.3E1,5.39E2,1.78E2,4.1E1,1.84E2,4.71E2,1.93E2,4.05E2,1.05E2,2.35E2,6.1E1],"tree_param":{"num_deleted":"0","num_feature":"2","num_nodes":"63","size_leaf_vector":"1"}},{"base_weights":[-2.8941243E0,1.5372386E3,-2.0228271E3,2.509799E3,8.400711E2,-5.800475E2,-3.2614597E3,3.0036357E3,1.1963892E3,2.2542683E3,-2.0405638E1,8.776523E1,-3.3196663E3,-1.6928091E3,-4.1491523E3,3.093307E3,2.531103E3,3.766618E3,1.08313614E2,2.858304E3,1.1344247E3,2.0681458E2,-1.6487362E3,6.398553E2,-9.823213E2,2.9244053E3,-3.6280024E3,3.6035065E2,-2.4184197E3,-3.438058E3,-4.955706E3,2.9190543E2,3.4721796E2,3.174996E2,-1.4116295E2,1.3200407E2,3.995435E2,8.9518524E1,-7.434307E1,3.2270212E2,1.9112585E2,3.996008E2,4.8843575E0,4.292254E1,-2.774585E1,3.3547497E1,-2.7531467E2,2.8513995E2,4.2215225E1,3.674168E1,-2.3041496E2,4.8924536E2,-3.5646198E2,-2.6380362E2,-5.072535E2,1.19407715E2,-3.1186584E2,-1.8102112E2,-3.73421E2,-2.6277097E2,-4.126489E2,-4.741612E2,-6.6096625E2],"categories":[],"categories_nodes":[],"categories_segments":[],"categories_sizes":[],"default_left":[0,0,0,0,0,0,0,0,0,0,0,0,0,0,0,0,0,0,0,0,0,0,0,0,0,0,0,0,0,0,0,0,0,0,0,0,0,0,0,0,0,0,0,0,0,0,0,0,0,0,0,0,0,0,0,0,0,0,0,0,0,0,0],"id":14,"left_children":[1,3,5,7,9,11,13,15,17,19,21,23,25,27,29,31,33,35,37,39,41,43,45,47,49,51,53,55,57,59,61,-1,-1,-1,-1,-1,-1,-1,-1,-1,-1,-1,-1,-1,-1,-1,-1,-1,-1,-1,-1,-1,-1,-1,-1,-1,-1,-1,-1,-1,-1,-1,-1],"loss_changes":[3.111587E10,3.845755E9,7.730776E9,1.5329638E9,4.0242806E9,3.6593958E9,3.2346685E9,6.509261E7,1.8145874E9,8.429655E8,7.6140966E8,9.5120026E8,7.653166E8,1.2567685E9,8.352338E8,8.50647E7,7.15317E8,1.0277069E8,3.069531E8,2.77376E8,1.3666563E9,1.9463894E8,5.531522E8,5.101067E8,9.785456E8,2.600833E8,5.2145254E8,6.447437E8,4.9181133E8,4.315474E8,2.1440717E8,0E0,0E0,0E0,0E0,0E0,0E0,0E0,0E0,0E0,0E0,0E0,0E0,0E0,0E0,0E0,0E0,0E0,0E0,0E0,0E0,0E0,0E0,0E0,0E0,0E0,0E0,0E0,0E0,0E0,0E0,0E0,0E0],"parents":[2147483647,0,0,1,1,2,2,3,3,4,4,5,5,6,6,7,7,8,8,9,9,10,10,11,11,12,12,13,13,14,14,15,15,16,16,17,17,18,18,19,19,20,20,21,21,22,22,23,23,24,24,25,25,26,26,27,27,28,28,29,29,30,30],"right_children":[2,4,6,8,10,12,14,16,18,20,22,24,26,28,30,32,34,36,38,40,42,44,46,48,50,52,54,56,58,60,62,-1,-1,-1,-1,-1,-1,-1,-1,-1,-1,-1,-1,-1,-1,-1,-1,-1,-1,-1,-1,-1,-1,-1,-1,-1,-1,-1,-1,-1,-1,-1,-1],"split_conditions":[1.16983116E2,8.1161194E1,8.406391E1,9.162307E1,8.2187965E1,1.6403409E2,1.3402933E2,7.601116E1,5.0577583E1,1.0499302E2,9.947005E1,1.4202808E2,6.488019E1,8.7455185E1,1.5643307E2,6.6052826E1,8.7912834E1,9.247059E1,9.654235E1,7.904831E1,7.208544E1,1.06282234E2,9.623608E1,6.767506E1,7.797273E1,2.0082771E2,7.89401E1,1.3021881E2,9.672275E1,9.100117E1,2.0082771E2,2.9190543E2,3.4721796E2,3.174996E2,-1.4116295E2,1.3200407E2,3.995435E2,8.9518524E1,-7.434307E1,3.2270212E2,1.9112585E2,3.996008E2,4.8843575E0,4.292254E1,-2.774585E1,3.3547497E1,-2.7531467E2,2.8513995E2,4.2215225E1,3.674168E1,-2.3041496E2,4.8924536E2,-3.5646198E2,-2.6380362E2,-5.072535E2,1.19407715E2,-3.1186584E2,-1.8102112E2,-3.73421E2,-2.6277097E2,-4.126489E2,-4.741612E2,-6.6096625E2],"split_indices":[0,0,1,1,1,0,0,0,0,0,1,0,1,1,0,0,1,1,1,1,1,0,0,1,1,0,1,0,1,1,0,0,0,0,0,0,0,0,0,0,0,0,0,0,0,0,0,0,0,0,0,0,0,0,0,0,0,0,0,0,0,0,0],"split_type":[0,0,0,0,0,0,0,0,0,0,0,0,0,0,0,0,0,0,0,0,0,0,0,0,0,0,0,0,0,0,0,0,0,0,0,0,0,0,0,0,0,0,0,0,0,0,0,0,0,0,0,0,0,0,0,0,0,0,0,0,0,0,0],"sum_hessian":[1E4,5.674E3,4.326E3,2.368E3,3.306E3,1.999E3,2.327E3,1.72E3,6.48E2,1.25E3,2.056E3,1.608E3,3.91E2,8.42E2,1.485E3,1.441E3,2.79E2,1.92E2,4.56E2,8.11E2,4.39E2,1.805E3,2.51E2,1.061E3,5.47E2,1.8E1,3.73E2,2.2E2,6.22E2,7.92E2,6.93E2,9.93E2,4.48E2,2.4E2,3.9E1,1.7E1,1.75E2,2.37E2,2.19E2,5.82E2,2.29E2,1.2E2,3.19E2,1.237E3,5.68E2,9E1,1.61E2,9.4E1,9.67E2,2.71E2,2.76E2,1.4E1,4E0,2.23E2,1.5E2,1.78E2,4.2E1,4.27E2,1.95E2,3.66E2,4.26E2,6.17E2,7.6E1],"tree_param":{"num_deleted":"0","num_feature":"2","num_nodes":"63","size_leaf_vector":"1"}},{"base_weights":[-2.7055843E0,1.3838766E3,-1.8212522E3,2.0888657E3,5.9913666E2,-8.871723E2,-3.3815403E3,2.6055168E3,1.1732245E3,2.5137065E3,2.7251003E1,7.863776E1,-2.5058408E3,-2.3820405E3,-4.3658535E3,2.7447334E3,2.0396194E3,2.6643245E3,2.6394894E2,3.0910583E3,1.3607966E3,3.0089017E2,-1.6466492E3,6.818826E2,-5.658499E2,2.6100455E2,-2.9320496E3,-1.8833154E3,-3.2970579E3,-3.8774888E3,-5.1912886E3,2.629416E2,3.123184E2,2.9109543E2,-7.691508E1,3.194131E2,1.1391316E2,9.7104385E1,-1.9027033E1,2.1312834E2,3.3130188E2,3.793237E2,-6.0108063E1,5.782096E1,-1.1395684E1,4.7355015E1,-2.3077632E2,2.1636868E2,4.463966E1,7.125828E1,-1.8936351E2,1.3369267E2,-1.2999008E2,-2.4567923E2,-4.6607492E2,-9.229585E1,-2.0883972E2,-1.2814099E2,-3.5856488E2,-3.602535E2,-4.4405573E2,-4.9077017E2,-6.104244E2],"categories":[],"categories_nodes":[],"categories_segments":[],"categories_sizes":[],"default_left":[0,0,0,0,0,0,0,0,0,0,0,0,0,0,0,0,0,0,0,0,0,0,0,0,0,0,0,0,0,0,0,0,0,0,0,0,0,0,0,0,0,0,0,0,0,0,0,0,0,0,0,0,0,0,0,0,0,0,0,0,0,0,0],"id":15,"left_children":[1,3,5,7,9,11,13,15,17,19,21,23,25,27,29,31,33,35,37,39,41,43,45,47,49,51,53,55,57,59,61,-1,-1,-1,-1,-1,-1,-1,-1,-1,-1,-1,-1,-1,-1,-1,-1,-1,-1,-1,-1,-1,-1,-1,-1,-1,-1,-1,-1,-1,-1,-1,-1],"loss_changes":[2.5220684E10,3.138347E9,6.303317E9,1.4109399E9,2.9419681E9,4.2336847E9,1.5833907E9,1.4487654E8,1.463583E9,4.0715622E8,9.4864774E8,6.6015206E8,1.1941699E9,3.6160205E8,3.0840832E8,5.855949E7,9.346907E8,3.268567E8,2.1601512E8,8.04951E7,9.948872E8,2.0484626E8,4.0898566E8,3.050581E8,1.3949838E9,2.3013797E8,7.090729E8,1.0127526E8,1.600256E8,6.3888384E7,4.7712256E7,0E0,0E0,0E0,0E0,0E0,0E0,0E0,0E0,0E0,0E0,0E0,0E0,0E0,0E0,0E0,0E0,0E0,0E0,0E0,0E0,0E0,0E0,0E0,0E0,0E0,0E0,0E0,0E0,0E0,0E0,0E0,0E0],"parents":[2147483647,0,0,1,1,2,2,3,3,4,4,5,5,6,6,7,7,8,8,9,9,10,10,11,11,12,12,13,13,14,14,15,15,16,16,17,17,18,18,19,19,20,20,21,21,22,22,23,23,24,24,25,25,26,26,27,27,28,28,29,29,30,30],"right_children":[2,4,6,8,10,12,14,16,18,20,22,24,26,28,30,32,34,36,38,40,42,44,46,48,50,52,54,56,58,60,62,-1,-1,-1,-1,-1,-1,-1,-1,-1,-1,-1,-1,-1,-1,-1,-1,-1,-1,-1,-1,-1,-1,-1,-1,-1,-1,-1,-1,-1,-1,-1,-1],"split_conditions":[1.16983116E2,8.876525E1,8.8100685E1,8.858917E1,7.777165E1,1.491383E2,1.4202808E2,8.169322E1,6.0437893E1,1.0817656E2,9.770846E1,8.013507E1,7.116141E1,9.654235E1,1.6689479E2,8.484134E1,8.51137E1,9.8055824E1,9.320908E1,9.217399E1,7.208544E1,1.0583963E2,9.623608E1,6.767506E1,1.3118771E2,1.7150206E2,1.8222298E2,8.955176E1,1.1989922E2,9.722808E1,9.786948E1,2.629416E2,3.123184E2,2.9109543E2,-7.691508E1,3.194131E2,1.1391316E2,9.7104385E1,-1.9027033E1,2.1312834E2,3.3130188E2,3.793237E2,-6.0108063E1,5.782096E1,-1.1395684E1,4.7355015E1,-2.3077632E2,2.1636868E2,4.463966E1,7.125828E1,-1.8936351E2,1.3369267E2,-1.2999008E2,-2.4567923E2,-4.6607492E2,-9.229585E1,-2.0883972E2,-1.2814099E2,-3.5856488E2,-3.602535E2,-4.4405573E2,-4.9077017E2,-6.104244E2],"split_indices":[0,0,1,1,1,0,0,0,0,0,1,1,1,1,0,1,1,1,1,0,1,0,0,1,0,0,0,1,0,1,1,0,0,0,0,0,0,0,0,0,0,0,0,0,0,0,0,0,0,0,0,0,0,0,0,0,0,0,0,0,0,0,0],"split_type":[0,0,0,0,0,0,0,0,0,0,0,0,0,0,0,0,0,0,0,0,0,0,0,0,0,0,0,0,0,0,0,0,0,0,0,0,0,0,0,0,0,0,0,0,0,0,0,0,0,0,0,0,0,0,0,0,0,0,0,0,0,0,0],"sum_hessian":[1E4,5.674E3,4.326E3,2.988E3,2.686E3,2.707E3,1.619E3,1.909E3,1.079E3,6.17E2,2.069E3,1.696E3,1.011E3,8.05E2,8.14E2,1.529E3,3.8E2,4.08E2,6.71E2,4.1E2,2.07E2,1.779E3,2.9E2,8.76E2,8.2E2,1.35E2,8.76E2,5.23E2,2.82E2,5.15E2,2.99E2,1.178E3,3.51E2,2.9E2,9E1,3.02E2,1.06E2,2.62E2,4.09E2,7.9E1,3.31E2,9.2E1,1.15E2,1.066E3,7.13E2,6.9E1,2.21E2,1.19E2,7.57E2,4.18E2,4.02E2,8E1,5.5E1,6.89E2,1.87E2,9.3E1,4.3E2,3.6E1,2.46E2,3.51E2,1.64E2,2.33E2,6.6E1],"tree_param":{"num_deleted":"0","num_feature":"2","num_nodes":"63","size_leaf_vector":"1"}},{"base_weights":[-2.5580184E0,1.2458464E3,-1.63988E3,1.988765E3,6.363918E2,-5.0309924E2,-2.7007522E3,2.4113481E3,1.0370382E3,1.9829248E3,9.3454635E-1,9.677658E1,-2.7082285E3,-1.9476273E3,-3.8244902E3,2.4909204E3,2.0860222E3,2.205959E3,-6.821727E1,2.6617998E3,9.831376E2,2.567766E2,-8.3068225E2,6.146932E2,-6.92162E2,-1.7768995E3,-4.244323E3,-9.129464E2,-2.5171416E3,-3.5171282E3,-4.690346E3,2.3538362E2,2.831186E2,2.728723E2,-2.2313425E1,3.0301462E2,1.4205817E2,-4.5102093E1,4.8232822E1,2.1859622E2,3.042479E2,3.6573343E2,-3.774108E1,1.03998474E2,1.2067632E1,4.177354E1,-1.9170142E2,2.960794E2,4.030759E1,2.2318514E1,-2.3066008E2,-1.3540637E2,-6.4427576E2,-3.8027646E2,-5.3001917E2,5.9453197E1,-2.0764651E2,-2.1986803E2,-3.3232498E2,-3.2775555E2,-4.976228E2,-4.207231E2,-5.419315E2],"categories":[],"categories_nodes":[],"categories_segments":[],"categories_sizes":[],"default_left":[0,0,0,0,0,0,0,0,0,0,0,0,0,0,0,0,0,0,0,0,0,0,0,0,0,0,0,0,0,0,0,0,0,0,0,0,0,0,0,0,0,0,0,0,0,0,0,0,0,0,0,0,0,0,0,0,0,0,0,0,0,0,0],"id":16,"left_children":[1,3,5,7,9,11,13,15,17,19,21,23,25,27,29,31,33,35,37,39,41,43,45,47,49,51,53,55,57,59,61,-1,-1,-1,-1,-1,-1,-1,-1,-1,-1,-1,-1,-1,-1,-1,-1,-1,-1,-1,-1,-1,-1,-1,-1,-1,-1,-1,-1,-1,-1,-1,-1],"loss_changes":[2.0444488E10,2.568234E9,5.2169144E9,1.0258821E9,2.6688148E9,2.7649219E9,1.8866022E9,4.062413E7,1.01821203E9,6.761134E8,4.512699E8,6.72171E8,6.319406E8,7.884969E8,2.2222438E8,5.9431936E7,5.259794E8,2.436105E8,8.578238E7,1.0112896E8,1.4785601E9,1.7277136E8,6.7754266E8,4.9180672E8,9.640221E8,5.436858E8,5.817088E7,8.396365E8,2.1475072E8,2.1649766E8,5.8904576E7,0E0,0E0,0E0,0E0,0E0,0E0,0E0,0E0,0E0,0E0,0E0,0E0,0E0,0E0,0E0,0E0,0E0,0E0,0E0,0E0,0E0,0E0,0E0,0E0,0E0,0E0,0E0,0E0,0E0,0E0,0E0,0E0],"parents":[2147483647,0,0,1,1,2,2,3,3,4,4,5,5,6,6,7,7,8,8,9,9,10,10,11,11,12,12,13,13,14,14,15,15,16,16,17,17,18,18,19,19,20,20,21,21,22,22,23,23,24,24,25,25,26,26,27,27,28,28,29,29,30,30],"right_children":[2,4,6,8,10,12,14,16,18,20,22,24,26,28,30,32,34,36,38,40,42,44,46,48,50,52,54,56,58,60,62,-1,-1,-1,-1,-1,-1,-1,-1,-1,-1,-1,-1,-1,-1,-1,-1,-1,-1,-1,-1,-1,-1,-1,-1,-1,-1,-1,-1,-1,-1,-1,-1],"split_conditions":[1.16983116E2,8.397733E1,8.462782E1,9.859623E1,7.414669E1,1.6290977E2,1.4867229E2,8.163796E1,7.729001E1,9.3290985E1,9.654235E1,1.3861972E2,7.993296E1,8.955176E1,9.575021E1,8.6099594E1,8.8409615E1,1.0817656E2,8.153136E1,5.4827232E1,4.8287872E1,8.169322E1,9.623608E1,6.767506E1,7.983232E1,2.0675111E2,1.8674425E2,1.2809488E2,9.846104E1,1.923938E2,1.6804575E2,2.3538362E2,2.831186E2,2.728723E2,-2.2313425E1,3.0301462E2,1.4205817E2,-4.5102093E1,4.8232822E1,2.1859622E2,3.042479E2,3.6573343E2,-3.774108E1,1.03998474E2,1.2067632E1,4.177354E1,-1.9170142E2,2.960794E2,4.030759E1,2.2318514E1,-2.3066008E2,-1.3540637E2,-6.4427576E2,-3.8027646E2,-5.3001917E2,5.9453197E1,-2.0764651E2,-2.1986803E2,-3.3232498E2,-3.2775555E2,-4.976228E2,-4.207231E2,-5.419315E2],"split_indices":[0,1,1,0,0,0,0,1,1,1,1,0,1,1,1,0,0,0,1,0,0,0,0,1,1,0,0,0,1,0,0,0,0,0,0,0,0,0,0,0,0,0,0,0,0,0,0,0,0,0,0,0,0,0,0,0,0,0,0,0,0,0,0],"split_type":[0,0,0,0,0,0,0,0,0,0,0,0,0,0,0,0,0,0,0,0,0,0,0,0,0,0,0,0,0,0,0,0,0,0,0,0,0,0,0,0,0,0,0,0,0,0,0,0,0,0,0,0,0,0,0,0,0,0,0,0,0,0,0],"sum_hessian":[1E4,5.674E3,4.326E3,2.556E3,3.118E3,2.089E3,2.237E3,1.769E3,7.87E2,9.99E2,2.119E3,1.643E3,4.46E2,1.341E3,8.96E2,1.416E3,3.53E2,3.82E2,4.05E2,5.94E2,4.05E2,1.621E3,4.98E2,9.92E2,6.51E2,2.79E2,1.67E2,4.77E2,8.64E2,6.65E2,2.31E2,1.015E3,4.01E2,2.76E2,7.7E1,1.85E2,1.97E2,2.39E2,1.66E2,2.67E2,3.27E2,1.36E2,2.69E2,2.39E2,1.382E3,2.32E2,2.66E2,8.1E1,9.11E2,4.16E2,2.35E2,2.57E2,2.2E1,1.21E2,4.6E1,2.08E2,2.69E2,6.22E2,2.42E2,5.74E2,9.1E1,1.43E2,8.8E1],"tree_param":{"num_deleted":"0","num_feature":"2","num_nodes":"63","size_leaf_vector":"1"}},{"base_weights":[-2.5037184E0,7.8681244E2,-2.103974E3,1.4765999E3,-9.708925E1,-3.347534E2,-2.8749253E3,2.1353743E3,9.2848486E2,3.5842813E2,-1.7285659E3,2.284089E2,-2.2591077E3,-2.2900203E3,-3.6917869E3,2.2704404E3,1.930356E3,2.059508E3,3.7816837E2,2.658691E3,1.511674E2,-8.817971E2,-2.3456511E3,9.107758E2,-4.5043997E2,-1.7512222E3,-5.826494E2,-1.7440421E3,-3.0733557E3,-3.5456372E3,-5.385063E3,2.083888E2,3.0435254E2,2.273828E2,-4.3641953E1,2.4181448E2,4.01175E1,9.0634834E1,6.6778893E0,2.844658E2,2.7254444E1,5.9239727E1,-1.8105322E1,2.5167436E2,-1.471694E2,-1.8096262E2,-3.26318E2,4.6899194E2,7.7417984E1,9.879168E1,-9.9326256E1,3.190936E2,-2.1570457E2,-8.441428E1,-2.015551E2,-1.5214235E2,-3.1412112E2,-3.1616895E2,-4.136735E2,-1.5733304E2,-5.42237E2],"categories":[],"categories_nodes":[],"categories_segments":[],"categories_sizes":[],"default_left":[0,0,0,0,0,0,0,0,0,0,0,0,0,0,0,0,0,0,0,0,0,0,0,0,0,0,0,0,0,0,0,0,0,0,0,0,0,0,0,0,0,0,0,0,0,0,0,0,0,0,0,0,0,0,0,0,0,0,0,0,0],"id":17,"left_children":[1,3,5,7,9,11,13,15,17,19,21,23,25,27,29,31,33,35,37,39,41,43,45,47,49,51,-1,53,55,57,59,-1,-1,-1,-1,-1,-1,-1,-1,-1,-1,-1,-1,-1,-1,-1,-1,-1,-1,-1,-1,-1,-1,-1,-1,-1,-1,-1,-1,-1,-1],"loss_changes":[1.6590559E10,4.4333036E9,3.724074E9,1.472685E9,2.3698327E9,9.000067E8,9.002957E8,4.6956544E7,1.3878417E9,1.1881462E9,3.6161126E8,2.9826326E8,3.304194E8,4.6979635E8,1.769042E8,1.5403162E8,6.049928E8,4.3318963E8,2.4697294E8,9.063603E7,3.3549526E8,5.9511654E8,1.918057E8,1.6207446E8,2.5317082E8,3.3981997E8,0E0,1.588238E8,4.3136E7,1.5304909E8,1.43232E5,0E0,0E0,0E0,0E0,0E0,0E0,0E0,0E0,0E0,0E0,0E0,0E0,0E0,0E0,0E0,0E0,0E0,0E0,0E0,0E0,0E0,0E0,0E0,0E0,0E0,0E0,0E0,0E0,0E0,0E0],"parents":[2147483647,0,0,1,1,2,2,3,3,4,4,5,5,6,6,7,7,8,8,9,9,10,10,11,11,12,12,13,13,14,14,15,15,16,16,17,17,18,18,19,19,20,20,21,21,22,22,23,23,24,24,25,25,27,27,28,28,29,29,30,30],"right_children":[2,4,6,8,10,12,14,16,18,20,22,24,26,28,30,32,34,36,38,40,42,44,46,48,50,52,-1,54,56,58,60,-1,-1,-1,-1,-1,-1,-1,-1,-1,-1,-1,-1,-1,-1,-1,-1,-1,-1,-1,-1,-1,-1,-1,-1,-1,-1,-1,-1,-1,-1],"split_conditions":[1.3402933E2,1.0067166E2,7.993296E1,8.397733E1,9.2838234E1,1.7150206E2,1.5826143E2,7.911639E1,6.6052826E1,6.992447E1,9.672275E1,1.4812704E2,2.0675111E2,9.100117E1,2.0675111E2,9.217399E1,9.4492004E1,9.8055824E1,8.1161194E1,1.3021881E2,1.14801254E2,1.0583963E2,1.21198746E2,6.0138336E1,7.116141E1,6.488019E1,-5.826494E2,1.3861972E2,1.3493628E2,9.0553986E1,8.0246765E1,2.083888E2,3.0435254E2,2.273828E2,-4.3641953E1,2.4181448E2,4.01175E1,9.0634834E1,6.6778893E0,2.844658E2,2.7254444E1,5.9239727E1,-1.8105322E1,2.5167436E2,-1.471694E2,-1.8096262E2,-3.26318E2,4.6899194E2,7.7417984E1,9.879168E1,-9.9326256E1,3.190936E2,-2.1570457E2,-8.441428E1,-2.015551E2,-1.5214235E2,-3.1412112E2,-3.1616895E2,-4.136735E2,-1.5733304E2,-5.42237E2],"split_indices":[0,0,1,1,1,0,0,1,0,1,1,0,0,1,0,0,0,1,0,0,0,0,0,1,1,1,0,0,0,1,1,0,0,0,0,0,0,0,0,0,0,0,0,0,0,0,0,0,0,0,0,0,0,0,0,0,0,0,0,0,0],"split_type":[0,0,0,0,0,0,0,0,0,0,0,0,0,0,0,0,0,0,0,0,0,0,0,0,0,0,0,0,0,0,0,0,0,0,0,0,0,0,0,0,0,0,0,0,0,0,0,0,0,0,0,0,0,0,0,0,0,0,0,0,0],"sum_hessian":[1E4,7.27E3,2.73E3,4.083E3,3.187E3,8.29E2,1.901E3,1.853E3,2.23E3,2.492E3,6.95E2,6.42E2,1.87E2,1.11E3,7.91E2,1.111E3,7.42E2,7.29E2,1.501E3,2.05E2,2.287E3,2.94E2,4.01E2,3.2E2,3.22E2,1.65E2,2.2E1,6.56E2,4.54E2,7.31E2,6E1,8.98E2,2.13E2,6.48E2,9.4E1,5.99E2,1.3E2,5.56E2,9.45E2,1.9E2,1.5E1,9.82E2,1.305E3,4.3E1,2.51E2,2.55E2,1.46E2,1E1,3.1E2,8.8E1,2.34E2,1.2E1,1.53E2,1.53E2,5.03E2,2E1,4.34E2,4.47E2,2.84E2,1E0,5.9E1],"tree_param":{"num_deleted":"0","num_feature":"2","num_nodes":"61","size_leaf_vector":"1"}},{"base_weights":[-2.3625097E0,7.08272E2,-1.8943511E3,1.3292026E3,-8.739587E1,-5.187771E2,-2.7051414E3,1.9222118E3,8.358058E2,5.926586E2,-9.91422E2,4.218409E1,-2.3784832E3,-2.2198894E3,-3.377888E3,1.9553257E3,1.21005E3,1.853942E3,3.4041617E2,2.468088E3,3.7124973E2,-5.2488947E2,-2.1123474E3,7.7145905E2,-5.2016437E2,1.8783727E3,-2.6566477E3,-1.760702E3,-2.767045E3,-3.2413662E3,-4.8755255E2,2.0239473E2,1.6751219E2,2.9981284E2,-8.76491E1,2.1767317E2,3.6136406E1,9.004653E1,8.606076E0,2.817806E2,1.2968567E2,8.222447E1,2.6631647E1,5.851742E1,-1.12408936E2,-1.6293701E2,-2.9390814E2,4.460389E2,6.691343E1,9.44213E1,-9.805925E1,3.815128E2,-2.7581625E2,-2.3325581E2,-5.219694E2,-3.878044E0,-1.7959677E2,-1.3765257E2,-2.8278122E2,-2.9253012E2,-3.8367773E2],"categories":[],"categories_nodes":[],"categories_segments":[],"categories_sizes":[],"default_left":[0,0,0,0,0,0,0,0,0,0,0,0,0,0,0,0,0,0,0,0,0,0,0,0,0,0,0,0,0,0,0,0,0,0,0,0,0,0,0,0,0,0,0,0,0,0,0,0,0,0,0,0,0,0,0,0,0,0,0,0,0],"id":18,"left_children":[1,3,5,7,9,11,13,15,17,19,21,23,25,27,29,31,33,35,37,39,41,43,45,47,49,51,53,55,57,59,-1,-1,-1,-1,-1,-1,-1,-1,-1,-1,-1,-1,-1,-1,-1,-1,-1,-1,-1,-1,-1,-1,-1,-1,-1,-1,-1,-1,-1,-1,-1],"loss_changes":[1.3447809E10,3.5923868E9,3.0444861E9,1.1933261E9,1.9605286E9,1.05792845E9,5.53345E8,4.135629E7,1.1246275E9,7.548146E8,7.148072E8,3.2028448E8,2.8325517E8,2.466263E8,1.3099878E8,3.06432E7,3.1975418E8,3.509189E8,2.138847E8,7.498906E7,7.687242E7,6.445231E8,1.5572736E8,1.2535488E8,2.9826592E8,1.4522026E8,1.7139994E8,3.3146624E7,3.455437E7,1.131689E8,0E0,0E0,0E0,0E0,0E0,0E0,0E0,0E0,0E0,0E0,0E0,0E0,0E0,0E0,0E0,0E0,0E0,0E0,0E0,0E0,0E0,0E0,0E0,0E0,0E0,0E0,0E0,0E0,0E0,0E0,0E0],"parents":[2147483647,0,0,1,1,2,2,3,3,4,4,5,5,6,6,7,7,8,8,9,9,10,10,11,11,12,12,13,13,14,14,15,15,16,16,17,17,18,18,19,19,20,20,21,21,22,22,23,23,24,24,25,25,26,26,27,27,28,28,29,29],"right_children":[2,4,6,8,10,12,14,16,18,20,22,24,26,28,30,32,34,36,38,40,42,44,46,48,50,52,54,56,58,60,-1,-1,-1,-1,-1,-1,-1,-1,-1,-1,-1,-1,-1,-1,-1,-1,-1,-1,-1,-1,-1,-1,-1,-1,-1,-1,-1,-1,-1,-1,-1],"split_conditions":[1.3402933E2,1.0067166E2,8.17983E1,8.397733E1,8.680339E1,1.7150206E2,1.5826143E2,9.859623E1,6.6052826E1,6.969073E1,9.672275E1,1.4536182E2,6.488019E1,9.100117E1,2.0675111E2,8.163796E1,7.821296E1,9.8055824E1,8.8100685E1,1.2381657E2,7.497891E1,1.1147131E2,1.21198746E2,6.0138336E1,7.116141E1,2.0082771E2,2.0675111E2,8.196078E1,1.3493628E2,9.247059E1,-4.8755255E2,2.0239473E2,1.6751219E2,2.9981284E2,-8.76491E1,2.1767317E2,3.6136406E1,9.004653E1,8.606076E0,2.817806E2,1.2968567E2,8.222447E1,2.6631647E1,5.851742E1,-1.12408936E2,-1.6293701E2,-2.9390814E2,4.460389E2,6.691343E1,9.44213E1,-9.805925E1,3.815128E2,-2.7581625E2,-2.3325581E2,-5.219694E2,-3.878044E0,-1.7959677E2,-1.3765257E2,-2.8278122E2,-2.9253012E2,-3.8367773E2],"split_indices":[0,0,1,1,1,0,0,0,0,1,1,0,1,1,0,1,1,1,1,0,1,0,0,1,1,0,0,1,0,1,0,0,0,0,0,0,0,0,0,0,0,0,0,0,0,0,0,0,0,0,0,0,0,0,0,0,0,0,0,0,0],"split_type":[0,0,0,0,0,0,0,0,0,0,0,0,0,0,0,0,0,0,0,0,0,0,0,0,0,0,0,0,0,0,0,0,0,0,0,0,0,0,0,0,0,0,0,0,0,0,0,0,0,0,0,0,0,0,0,0,0,0,0,0,0],"sum_hessian":[1E4,7.27E3,2.73E3,4.083E3,3.187E3,1.013E3,1.717E3,1.853E3,2.23E3,1.819E3,1.368E3,7.79E2,2.34E2,1E3,7.17E2,1.769E3,8.4E1,7.29E2,1.501E3,1.91E2,1.628E3,9.67E2,4.01E2,3.39E2,4.4E2,1.4E1,2.2E2,5.46E2,4.54E2,6.6E2,5.7E1,1.416E3,3.53E2,4.5E1,3.9E1,5.99E2,1.3E2,4.68E2,1.033E3,1.46E2,4.5E1,3.06E2,1.322E3,3.39E2,6.28E2,2.55E2,1.46E2,8E0,3.31E2,1.05E2,3.35E2,1E1,4E0,1.97E2,2.3E1,1.1E1,5.35E2,2E1,4.34E2,4.35E2,2.25E2],"tree_param":{"num_deleted":"0","num_feature":"2","num_nodes":"61","size_leaf_vector":"1"}},{"base_weights":[-2.222409E0,6.3757495E2,-1.7056146E3,1.1965116E3,-7.865305E1,-2.5206607E2,-2.3357349E3,1.7303048E3,7.523837E2,4.1234125E2,-1.1033434E3,1.5627759E2,-2.0094691E3,-1.9487369E3,-3.2121086E3,1.7600023E3,1.091541E3,1.5525703E3,2.2707413E2,2.1607092E3,2.2752519E2,-5.93433E2,-1.9022489E3,7.703186E2,-4.0080286E2,-1.3610667E3,-4.1330034E3,-4.237187E2,-2.1229614E3,-3.0698545E3,-4.3767725E3,9.618537E1,1.7812161E2,2.7048334E2,-7.910338E1,2.0557251E2,8.247483E1,3.563004E1,-5.5759132E1,2.3483499E2,3.9585938E1,3.3268658E1,-2.3343603E1,9.555481E1,-1.1608917E2,-1.4670691E2,-2.6471725E2,3.9220032E2,6.5599976E1,1.3924944E2,-7.0132225E1,1.0871112E2,-1.8566179E2,-3.016397E2,-5.340236E2,1.867255E2,-1.6802805E2,-1.8055829E2,-2.699012E2,-2.747411E2,-3.5472574E2,-1.233679E2,-4.408596E2],"categories":[],"categories_nodes":[],"categories_segments":[],"categories_sizes":[],"default_left":[0,0,0,0,0,0,0,0,0,0,0,0,0,0,0,0,0,0,0,0,0,0,0,0,0,0,0,0,0,0,0,0,0,0,0,0,0,0,0,0,0,0,0,0,0,0,0,0,0,0,0,0,0,0,0,0,0,0,0,0,0,0,0],"id":19,"left_children":[1,3,5,7,9,11,13,15,17,19,21,23,25,27,29,31,33,35,37,39,41,43,45,47,49,51,53,55,57,59,61,-1,-1,-1,-1,-1,-1,-1,-1,-1,-1,-1,-1,-1,-1,-1,-1,-1,-1,-1,-1,-1,-1,-1,-1,-1,-1,-1,-1,-1,-1,-1,-1],"loss_changes":[1.0900436E10,2.910865E9,2.5007626E9,9.6690176E8,1.6043923E9,5.937894E8,6.3983E8,3.3248768E7,9.3743846E8,6.9616915E8,4.1968448E8,2.3017994E8,2.0917184E8,3.5088128E8,8.298854E7,2.8255744E7,2.602968E8,3.220315E8,1.3688502E8,6.72887E7,9.4653E7,5.5662637E8,1.2643507E8,1.1272221E8,1.9121552E8,1.4881523E8,3.2419904E7,3.9752624E8,2.1232384E8,7.060838E7,6.62912E5,0E0,0E0,0E0,0E0,0E0,0E0,0E0,0E0,0E0,0E0,0E0,0E0,0E0,0E0,0E0,0E0,0E0,0E0,0E0,0E0,0E0,0E0,0E0,0E0,0E0,0E0,0E0,0E0,0E0,0E0,0E0,0E0],"parents":[2147483647,0,0,1,1,2,2,3,3,4,4,5,5,6,6,7,7,8,8,9,9,10,10,11,11,12,12,13,13,14,14,15,15,16,16,17,17,18,18,19,19,20,20,21,21,22,22,23,23,24,24,25,25,26,26,27,27,28,28,29,29,30,30],"right_children":[2,4,6,8,10,12,14,16,18,20,22,24,26,28,30,32,34,36,38,40,42,44,46,48,50,52,54,56,58,60,62,-1,-1,-1,-1,-1,-1,-1,-1,-1,-1,-1,-1,-1,-1,-1,-1,-1,-1,-1,-1,-1,-1,-1,-1,-1,-1,-1,-1,-1,-1,-1,-1],"split_conditions":[1.3402933E2,1.0067166E2,7.983232E1,8.397733E1,8.955176E1,1.7548329E2,1.6573817E2,9.859623E1,7.051815E1,6.992447E1,9.672275E1,1.4812704E2,2.0082771E2,8.188293E1,2.0675111E2,6.282391E1,7.821296E1,9.320908E1,9.947005E1,1.2895332E2,8.6639244E1,1.0962799E2,1.21198746E2,6.0138336E1,6.817933E1,6.905174E1,2.1568048E2,1.4134358E2,9.320908E1,9.035857E1,8.0246765E1,9.618537E1,1.7812161E2,2.7048334E2,-7.910338E1,2.0557251E2,8.247483E1,3.563004E1,-5.5759132E1,2.3483499E2,3.9585938E1,3.3268658E1,-2.3343603E1,9.555481E1,-1.1608917E2,-1.4670691E2,-2.6471725E2,3.9220032E2,6.5599976E1,1.3924944E2,-7.0132225E1,1.0871112E2,-1.8566179E2,-3.016397E2,-5.340236E2,1.867255E2,-1.6802805E2,-1.8055829E2,-2.699012E2,-2.747411E2,-3.5472574E2,-1.233679E2,-4.408596E2],"split_indices":[0,0,1,1,1,0,0,0,0,1,1,0,0,1,0,1,1,1,1,0,1,0,0,1,1,1,0,0,1,1,1,0,0,0,0,0,0,0,0,0,0,0,0,0,0,0,0,0,0,0,0,0,0,0,0,0,0,0,0,0,0,0,0],"split_type":[0,0,0,0,0,0,0,0,0,0,0,0,0,0,0,0,0,0,0,0,0,0,0,0,0,0,0,0,0,0,0,0,0,0,0,0,0,0,0,0,0,0,0,0,0,0,0,0,0,0,0,0,0,0,0,0,0,0,0,0,0,0,0],"sum_hessian":[1E4,7.27E3,2.73E3,4.083E3,3.187E3,8.26E2,1.904E3,1.853E3,2.23E3,2.155E3,1.032E3,6.71E2,1.55E2,1.323E3,5.81E2,1.769E3,8.4E1,8.83E2,1.347E3,2.05E2,1.95E3,6.31E2,4.01E2,3.19E2,3.52E2,1.2E2,3.5E1,1.36E2,1.187E3,5.21E2,6E1,4.7E1,1.722E3,4.5E1,3.9E1,5.21E2,3.62E2,1.157E3,1.9E2,1.85E2,2E1,1.588E3,3.62E2,1.69E2,4.62E2,2.55E2,1.46E2,1E1,3.09E2,5E1,3.02E2,2E1,1E2,2E1,1.5E1,4.8E1,8.8E1,7.68E2,4.19E2,3.15E2,2.06E2,1E0,5.9E1],"tree_param":{"num_deleted":"0","num_feature":"2","num_nodes":"63","size_leaf_vector":"1"}},{"base_weights":[-2.1428185E0,7.806284E2,-1.1336199E3,1.2492649E3,3.013072E2,-3.6795337E2,-1.8463331E3,1.6038611E3,6.824273E2,1.2461953E3,-1.2081709E2,2.212638E1,-1.9874022E3,-1.3632017E3,-2.5570208E3,1.6769497E3,1.3073468E3,1.6566544E3,3.242573E1,1.7916309E3,3.8731277E2,1.647176E2,-6.771423E2,4.4495462E2,-4.952195E2,1.1363472E3,-2.3448516E3,-1.1291604E3,-2.3716287E3,-2.3417354E3,-3.1687466E3,1.5468922E2,2.1945634E2,1.8501201E2,-7.3437584E1,2.089969E2,3.6477222E1,4.6735165E1,-2.9193323E1,2.0869469E2,1.4754604E2,2.3197342E2,-5.480476E1,-7.5903053E0,6.297674E1,8.1905985E-1,-1.5084111E2,2.4318987E2,3.0888418E1,5.935391E0,-1.8051247E2,3.604518E2,-6.592884E1,-1.6132066E2,-3.1761606E2,-4.9266468E1,-1.5278287E2,-2.088057E2,-3.948585E2,-2.1743228E2,-3.3098395E2,-2.7856125E2,-3.701387E2],"categories":[],"categories_nodes":[],"categories_segments":[],"categories_sizes":[],"default_left":[0,0,0,0,0,0,0,0,0,0,0,0,0,0,0,0,0,0,0,0,0,0,0,0,0,0,0,0,0,0,0,0,0,0,0,0,0,0,0,0,0,0,0,0,0,0,0,0,0,0,0,0,0,0,0,0,0,0,0,0,0,0,0],"id":20,"left_children":[1,3,5,7,9,11,13,15,17,19,21,23,25,27,29,31,33,35,37,39,41,43,45,47,49,51,53,55,57,59,61,-1,-1,-1,-1,-1,-1,-1,-1,-1,-1,-1,-1,-1,-1,-1,-1,-1,-1,-1,-1,-1,-1,-1,-1,-1,-1,-1,-1,-1,-1,-1,-1],"loss_changes":[8.858648E9,1.3276206E9,2.231236E9,5.996897E8,1.1664177E9,1.246416E9,7.237412E8,3.7640704E7,7.2944915E8,4.2233024E8,3.2130653E8,3.4824912E8,4.3031565E8,2.954071E8,1.0531072E8,9.563213E7,4.091735E8,2.573015E8,9.7758344E7,4.8461056E7,6.37515E8,1.4965888E8,3.9082374E8,2.3608798E8,5.202372E8,1.7965384E8,2.0410483E8,2.5984909E8,9.773696E7,9.604403E7,3.4585344E7,0E0,0E0,0E0,0E0,0E0,0E0,0E0,0E0,0E0,0E0,0E0,0E0,0E0,0E0,0E0,0E0,0E0,0E0,0E0,0E0,0E0,0E0,0E0,0E0,0E0,0E0,0E0,0E0,0E0,0E0,0E0,0E0],"parents":[2147483647,0,0,1,1,2,2,3,3,4,4,5,5,6,6,7,7,8,8,9,9,10,10,11,11,12,12,13,13,14,14,15,15,16,16,17,17,18,18,19,19,20,20,21,21,22,22,23,23,24,24,25,25,26,26,27,27,28,28,29,29,30,30],"right_children":[2,4,6,8,10,12,14,16,18,20,22,24,26,28,30,32,34,36,38,40,42,44,46,48,50,52,54,56,58,60,62,-1,-1,-1,-1,-1,-1,-1,-1,-1,-1,-1,-1,-1,-1,-1,-1,-1,-1,-1,-1,-1,-1,-1,-1,-1,-1,-1,-1,-1,-1,-1,-1],"split_conditions":[1.19081154E2,8.876525E1,8.462782E1,8.7912834E1,8.0045166E1,1.6573817E2,1.4988237E2,8.169322E1,6.221908E1,1.0817656E2,9.233216E1,1.3861972E2,6.905174E1,9.846104E1,9.575021E1,8.484134E1,8.51137E1,9.8055824E1,9.320908E1,9.859623E1,7.208544E1,1.0882949E2,1.0583963E2,6.620533E1,8.094497E1,1.7816408E2,7.89401E1,1.2895332E2,1.442695E2,1.923938E2,1.6804575E2,1.5468922E2,2.1945634E2,1.8501201E2,-7.3437584E1,2.089969E2,3.6477222E1,4.6735165E1,-2.9193323E1,2.0869469E2,1.4754604E2,2.3197342E2,-5.480476E1,-7.5903053E0,6.297674E1,8.1905985E-1,-1.5084111E2,2.4318987E2,3.0888418E1,5.935391E0,-1.8051247E2,3.604518E2,-6.592884E1,-1.6132066E2,-3.1761606E2,-4.9266468E1,-1.5278287E2,-2.088057E2,-3.948585E2,-2.1743228E2,-3.3098395E2,-2.7856125E2,-3.701387E2],"split_indices":[0,0,1,1,1,0,0,0,0,0,1,0,1,1,1,1,1,1,1,0,1,0,0,1,1,0,1,0,0,0,0,0,0,0,0,0,0,0,0,0,0,0,0,0,0,0,0,0,0,0,0,0,0,0,0,0,0,0,0,0,0,0,0],"split_type":[0,0,0,0,0,0,0,0,0,0,0,0,0,0,0,0,0,0,0,0,0,0,0,0,0,0,0,0,0,0,0,0,0,0,0,0,0,0,0,0,0,0,0,0,0,0,0,0,0,0,0,0,0,0,0,0,0,0,0,0,0,0,0],"sum_hessian":[1E4,5.911E3,4.089E3,2.988E3,2.923E3,1.972E3,2.117E3,1.837E3,1.151E3,9.02E2,2.021E3,1.59E3,3.82E2,1.262E3,8.55E2,1.47E3,3.67E2,4.6E2,6.91E2,5.51E2,3.51E2,1.336E3,6.85E2,8.75E2,7.15E2,3.9E1,3.43E2,1.026E3,2.36E2,6.36E2,2.19E2,1.178E3,2.92E2,2.9E2,7.7E1,3.44E2,1.16E2,2.95E2,3.96E2,2.82E2,2.69E2,1.14E2,2.37E2,8.81E2,4.55E2,3.76E2,3.09E2,5.5E1,8.2E2,5.03E2,2.12E2,1.6E1,2.3E1,1.84E2,1.59E2,3.96E2,6.3E2,2.02E2,3.4E1,5.45E2,9.1E1,1.31E2,8.8E1],"tree_param":{"num_deleted":"0","num_feature":"2","num_nodes":"63","size_leaf_vector":"1"}},{"base_weights":[-2.018358E0,7.386795E2,-9.73467E2,9.430585E2,-9.988288E1,-4.5800043E2,-1.8345226E3,1.4453678E3,5.974999E2,2.8692954E3,-4.9205084E2,5.820307E0,-1.4362375E3,-1.2909469E3,-2.428465E3,1.5067292E3,8.308362E2,1.2911453E3,2.3631268E2,1.5499823E3,3.8467488E3,-2.1224161E2,-1.7665922E3,3.4069586E2,-3.0214542E2,8.1908203E2,-1.6843606E3,-6.0109906E2,-1.4395352E3,-2.245515E3,-3.1551553E3,1.3160896E2,1.7761674E2,2.2773257E2,-7.6690636E1,1.555717E2,5.4526978E1,5.762436E1,7.8173485E0,3.3347253E2,1.314243E2,4.4907144E2,3.331955E2,2.9780762E1,-9.557413E1,-2.8320447E2,-6.06264E1,2.2043057E2,1.620143E1,2.324709E1,-1.1790853E2,1.3127422E2,-1.8487697E2,-1.5409416E2,-4.2493048E2,2.4409541E2,-1.4006413E2,-1.3013826E2,-1.9703328E2,-1.8989029E2,-2.6979562E2,-3.841168E2,-2.9191248E2],"categories":[],"categories_nodes":[],"categories_segments":[],"categories_sizes":[],"default_left":[0,0,0,0,0,0,0,0,0,0,0,0,0,0,0,0,0,0,0,0,0,0,0,0,0,0,0,0,0,0,0,0,0,0,0,0,0,0,0,0,0,0,0,0,0,0,0,0,0,0,0,0,0,0,0,0,0,0,0,0,0,0,0],"id":21,"left_children":[1,3,5,7,9,11,13,15,17,19,21,23,25,27,29,31,33,35,37,39,41,43,45,47,49,51,53,55,57,59,61,-1,-1,-1,-1,-1,-1,-1,-1,-1,-1,-1,-1,-1,-1,-1,-1,-1,-1,-1,-1,-1,-1,-1,-1,-1,-1,-1,-1,-1,-1,-1,-1],"loss_changes":[7.196937E9,9.7270144E8,1.919679E9,7.9116954E8,1.2974075E9,1.2287002E9,5.1988634E8,6.884838E7,6.773942E8,1.6168134E8,3.5054742E8,1.8965622E8,4.8878848E8,8.60576E7,9.56841E7,8.441882E7,3.9694765E8,1.8188634E8,9.564135E7,1.9599184E7,9.568768E6,3.0669558E8,2.1710368E8,2.9300947E8,4.4940973E8,1.1700697E8,2.8222336E8,3.731209E8,4.8547456E7,9.226317E7,1.3560832E7,0E0,0E0,0E0,0E0,0E0,0E0,0E0,0E0,0E0,0E0,0E0,0E0,0E0,0E0,0E0,0E0,0E0,0E0,0E0,0E0,0E0,0E0,0E0,0E0,0E0,0E0,0E0,0E0,0E0,0E0,0E0,0E0],"parents":[2147483647,0,0,1,1,2,2,3,3,4,4,5,5,6,6,7,7,8,8,9,9,10,10,11,11,12,12,13,13,14,14,15,15,16,16,17,17,18,18,19,19,20,20,21,21,22,22,23,23,24,24,25,25,26,26,27,27,28,28,29,29,30,30],"right_children":[2,4,6,8,10,12,14,16,18,20,22,24,26,28,30,32,34,36,38,40,42,44,46,48,50,52,54,56,58,60,62,-1,-1,-1,-1,-1,-1,-1,-1,-1,-1,-1,-1,-1,-1,-1,-1,-1,-1,-1,-1,-1,-1,-1,-1,-1,-1,-1,-1,-1,-1,-1,-1],"split_conditions":[1.16983116E2,9.381696E1,8.8100685E1,8.063067E1,4.8287872E1,1.5326056E2,1.4372421E2,9.149605E1,7.911639E1,9.672275E1,1.0780887E2,1.315564E2,6.969073E1,9.02316E1,9.975454E1,6.6052826E1,6.4764465E1,1.0817656E2,8.397733E1,9.4078606E1,9.947005E1,9.947005E1,9.82376E1,6.905174E1,8.196078E1,1.923938E2,2.0675111E2,1.2232202E2,1.3734277E2,1.6491394E2,1.5129558E2,1.3160896E2,1.7761674E2,2.2773257E2,-7.6690636E1,1.555717E2,5.4526978E1,5.762436E1,7.8173485E0,3.3347253E2,1.314243E2,4.4907144E2,3.331955E2,2.9780762E1,-9.557413E1,-2.8320447E2,-6.06264E1,2.2043057E2,1.620143E1,2.324709E1,-1.1790853E2,1.3127422E2,-1.8487697E2,-1.5409416E2,-4.2493048E2,2.4409541E2,-1.4006413E2,-1.3013826E2,-1.9703328E2,-1.8989029E2,-2.6979562E2,-3.841168E2,-2.9191248E2],"split_indices":[0,1,1,0,0,0,0,1,1,1,0,0,1,1,1,0,0,0,1,1,1,1,1,1,1,0,0,0,0,0,0,0,0,0,0,0,0,0,0,0,0,0,0,0,0,0,0,0,0,0,0,0,0,0,0,0,0,0,0,0,0,0,0],"split_type":[0,0,0,0,0,0,0,0,0,0,0,0,0,0,0,0,0,0,0,0,0,0,0,0,0,0,0,0,0,0,0,0,0,0,0,0,0,0,0,0,0,0,0,0,0,0,0,0,0,0,0,0,0,0,0,0,0,0,0,0,0,0,0],"sum_hessian":[1E4,5.674E3,4.326E3,4.562E3,1.112E3,2.707E3,1.619E3,1.858E3,2.704E3,1.29E2,9.83E2,1.837E3,8.7E2,8.47E2,7.72E2,1.688E3,1.7E2,9.25E2,1.779E3,5.6E1,7.3E1,8.07E2,1.76E2,8.8E2,9.57E2,8.6E1,7.84E2,1.51E2,6.96E2,6.2E2,1.52E2,9.92E2,6.96E2,8.9E1,8.1E1,6.82E2,2.43E2,5.64E2,1.215E3,5E0,5.1E1,2.9E1,4.4E1,4.79E2,3.28E2,9.1E1,8.5E1,7.6E1,8.04E2,5.95E2,3.62E2,7.3E1,1.3E1,7.44E2,4E1,3.1E1,1.2E2,5.55E2,1.41E2,3.54E2,2.66E2,3.5E1,1.17E2],"tree_param":{"num_deleted":"0","num_feature":"2","num_nodes":"63","size_leaf_vector":"1"}},{"base_weights":[-1.8441039E0,6.6508887E2,-8.765478E2,8.48914E2,-8.9142204E1,-4.123818E2,-1.6519088E3,1.3010781E3,5.378523E2,2.5919592E3,-4.4326215E2,5.315307E0,-1.2933403E3,-1.1621151E3,-2.1870876E3,1.3552734E3,7.364591E2,1.1622584E3,2.1271861E2,1.505208E3,3.560685E3,-1.9109914E2,-1.591875E3,3.0689514E2,-2.7203036E2,7.3655835E2,-1.5166625E3,-5.403045E2,-1.2960507E3,-2.0217035E3,-2.844058E3,1.1880495E2,1.5901244E2,2.0234857E2,-7.6070755E1,1.4003743E2,4.9096592E1,5.187206E1,7.0363503E0,3.0568314E2,1.3187433E2,4.4520505E2,3.006164E2,4.414064E1,-6.9527336E1,-3.2272525E2,-9.406191E1,1.9867387E2,1.4583321E1,3.401412E1,-9.163909E1,1.1832426E2,-1.6770982E2,-1.3556119E2,-3.4400986E2,2.2044864E2,-1.2617344E2,-1.1366955E2,-1.6809227E2,-1.8823695E2,-2.953813E2,-2.5597375E2,-3.4126816E2],"categories":[],"categories_nodes":[],"categories_segments":[],"categories_sizes":[],"default_left":[0,0,0,0,0,0,0,0,0,0,0,0,0,0,0,0,0,0,0,0,0,0,0,0,0,0,0,0,0,0,0,0,0,0,0,0,0,0,0,0,0,0,0,0,0,0,0,0,0,0,0,0,0,0,0,0,0,0,0,0,0,0,0],"id":22,"left_children":[1,3,5,7,9,11,13,15,17,19,21,23,25,27,29,31,33,35,37,39,41,43,45,47,49,51,53,55,57,59,61,-1,-1,-1,-1,-1,-1,-1,-1,-1,-1,-1,-1,-1,-1,-1,-1,-1,-1,-1,-1,-1,-1,-1,-1,-1,-1,-1,-1,-1,-1,-1,-1],"loss_changes":[5.8348544E9,7.8689536E8,1.5565896E9,6.4109056E8,1.0578661E9,9.964802E8,4.2210458E8,5.588685E7,5.489095E8,1.3149978E8,2.8469926E8,1.5381722E8,3.9595994E8,6.992346E7,7.823846E7,6.4678144E7,3.1947667E8,1.473294E8,7.750197E7,1.419616E7,2.022752E7,2.5797243E8,1.8547805E8,2.3807262E8,3.782036E8,9.578279E7,2.3850662E8,3.037679E8,4.083725E7,7.509197E7,1.6E7,0E0,0E0,0E0,0E0,0E0,0E0,0E0,0E0,0E0,0E0,0E0,0E0,0E0,0E0,0E0,0E0,0E0,0E0,0E0,0E0,0E0,0E0,0E0,0E0,0E0,0E0,0E0,0E0,0E0,0E0,0E0,0E0],"parents":[2147483647,0,0,1,1,2,2,3,3,4,4,5,5,6,6,7,7,8,8,9,9,10,10,11,11,12,12,13,13,14,14,15,15,16,16,17,17,18,18,19,19,20,20,21,21,22,22,23,23,24,24,25,25,26,26,27,27,28,28,29,29,30,30],"right_children":[2,4,6,8,10,12,14,16,18,20,22,24,26,28,30,32,34,36,38,40,42,44,46,48,50,52,54,56,58,60,62,-1,-1,-1,-1,-1,-1,-1,-1,-1,-1,-1,-1,-1,-1,-1,-1,-1,-1,-1,-1,-1,-1,-1,-1,-1,-1,-1,-1,-1,-1,-1,-1],"split_conditions":[1.16983116E2,9.381696E1,8.8100685E1,8.063067E1,4.8287872E1,1.5326056E2,1.4372421E2,9.162307E1,7.911639E1,9.708323E1,1.0780887E2,1.315564E2,6.969073E1,9.02316E1,9.975454E1,6.6052826E1,6.4764465E1,1.0817656E2,8.397733E1,9.4078606E1,9.947005E1,9.770846E1,9.589629E1,6.905174E1,8.013507E1,1.923938E2,2.0082771E2,1.2232202E2,1.3493628E2,1.9009709E2,1.6804575E2,1.1880495E2,1.5901244E2,2.0234857E2,-7.6070755E1,1.4003743E2,4.9096592E1,5.187206E1,7.0363503E0,3.0568314E2,1.3187433E2,4.4520505E2,3.006164E2,4.414064E1,-6.9527336E1,-3.2272525E2,-9.406191E1,1.9867387E2,1.4583321E1,3.401412E1,-9.163909E1,1.1832426E2,-1.6770982E2,-1.3556119E2,-3.4400986E2,2.2044864E2,-1.2617344E2,-1.1366955E2,-1.6809227E2,-1.8823695E2,-2.953813E2,-2.5597375E2,-3.4126816E2],"split_indices":[0,1,1,0,0,0,0,1,1,1,0,0,1,1,1,0,0,0,1,1,1,1,1,1,1,0,0,0,0,0,0,0,0,0,0,0,0,0,0,0,0,0,0,0,0,0,0,0,0,0,0,0,0,0,0,0,0,0,0,0,0,0,0],"split_type":[0,0,0,0,0,0,0,0,0,0,0,0,0,0,0,0,0,0,0,0,0,0,0,0,0,0,0,0,0,0,0,0,0,0,0,0,0,0,0,0,0,0,0,0,0,0,0,0,0,0,0,0,0,0,0,0,0,0,0,0,0,0,0],"sum_hessian":[1E4,5.674E3,4.326E3,4.562E3,1.112E3,2.707E3,1.619E3,1.858E3,2.704E3,1.29E2,9.83E2,1.837E3,8.7E2,8.47E2,7.72E2,1.694E3,1.64E2,9.25E2,1.779E3,6.2E1,6.7E1,8.07E2,1.76E2,8.8E2,9.57E2,8.6E1,7.84E2,1.51E2,6.96E2,6.2E2,1.52E2,9.93E2,7.01E2,8.8E1,7.6E1,6.82E2,2.43E2,5.64E2,1.215E3,5E0,5.7E1,2.3E1,4.4E1,3.58E2,4.49E2,4.9E1,1.27E2,7.6E1,8.04E2,4.91E2,4.66E2,7.3E1,1.3E1,7.25E2,5.9E1,3.1E1,1.2E2,4.95E2,2.01E2,5.42E2,7.8E1,1.05E2,4.7E1],"tree_param":{"num_deleted":"0","num_feature":"2","num_nodes":"63","size_leaf_vector":"1"}},{"base_weights":[-1.6846187E0,5.9882544E2,-7.892725E2,7.641654E2,-7.9562035E1,-3.7128174E2,-1.4875007E3,1.1711881E3,4.8415826E2,2.341866E3,-3.9938528E2,4.4275723E1,-1.0959207E3,-1.0461245E3,-1.969777E3,1.2209362E3,6.7296796E2,1.0462358E3,1.9147966E2,1.258331E3,3.1448337E3,-1.7202065E2,-1.4350419E3,2.2913142E3,1.3848569E1,-1.855821E2,-1.4781268E3,-4.8565366E2,-1.1668497E3,-1.7275797E3,-2.3458828E3,1.06592766E2,1.4400217E2,1.9310774E2,-5.6395473E1,1.3145607E2,5.459963E1,4.9339638E1,7.2170725E0,1.3613187E2,-1.04921745E2,3.2405222E2,1.1762278E2,5.5876026E1,-5.317005E1,-2.5109192E2,-6.0061035E1,6.957639E1,3.0958902E2,2.5618763E1,-2.5717802E1,9.811621E1,-7.680074E1,-1.3505907E2,-3.062102E2,1.9909264E2,-1.1366033E2,-2.7903976E2,-1.1343345E2,-1.5492297E2,-2.3708992E2,-1.0563546E2,-2.4244473E2],"categories":[],"categories_nodes":[],"categories_segments":[],"categories_sizes":[],"default_left":[0,0,0,0,0,0,0,0,0,0,0,0,0,0,0,0,0,0,0,0,0,0,0,0,0,0,0,0,0,0,0,0,0,0,0,0,0,0,0,0,0,0,0,0,0,0,0,0,0,0,0,0,0,0,0,0,0,0,0,0,0,0,0],"id":23,"left_children":[1,3,5,7,9,11,13,15,17,19,21,23,25,27,29,31,33,35,37,39,41,43,45,47,49,51,53,55,57,59,61,-1,-1,-1,-1,-1,-1,-1,-1,-1,-1,-1,-1,-1,-1,-1,-1,-1,-1,-1,-1,-1,-1,-1,-1,-1,-1,-1,-1,-1,-1,-1,-1],"loss_changes":[4.7304904E9,6.3659494E8,1.2622956E9,5.1947443E8,8.628747E8,8.155063E8,3.4278093E8,4.5254656E7,4.447941E8,1.0914842E8,2.3145728E8,1.177031E8,3.4313946E8,5.6811456E7,6.6361344E7,5.5823616E7,2.6719651E8,1.2357613E8,6.408241E7,1.4974296E7,1.0128064E7,2.1267758E8,1.5739293E8,2.737204E7,1.1172243E8,1.9985914E8,1.3626432E8,2.4730648E8,3.362944E7,5.071181E7,2.7832192E7,0E0,0E0,0E0,0E0,0E0,0E0,0E0,0E0,0E0,0E0,0E0,0E0,0E0,0E0,0E0,0E0,0E0,0E0,0E0,0E0,0E0,0E0,0E0,0E0,0E0,0E0,0E0,0E0,0E0,0E0,0E0,0E0],"parents":[2147483647,0,0,1,1,2,2,3,3,4,4,5,5,6,6,7,7,8,8,9,9,10,10,11,11,12,12,13,13,14,14,15,15,16,16,17,17,18,18,19,19,20,20,21,21,22,22,23,23,24,24,25,25,26,26,27,27,28,28,29,29,30,30],"right_children":[2,4,6,8,10,12,14,16,18,20,22,24,26,28,30,32,34,36,38,40,42,44,46,48,50,52,54,56,58,60,62,-1,-1,-1,-1,-1,-1,-1,-1,-1,-1,-1,-1,-1,-1,-1,-1,-1,-1,-1,-1,-1,-1,-1,-1,-1,-1,-1,-1,-1,-1,-1,-1],"split_conditions":[1.16983116E2,9.381696E1,8.8100685E1,8.063067E1,4.8287872E1,1.4988237E2,1.4372421E2,9.149605E1,7.911639E1,9.672275E1,1.0780887E2,6.0138336E1,7.597585E1,9.02316E1,1.6689479E2,6.6052826E1,6.290334E1,1.0499302E2,9.180821E1,9.654235E1,4.719101E1,9.654235E1,9.745557E1,1.285748E2,1.3207857E2,1.60995E2,2.0082771E2,1.2232202E2,1.1735338E2,9.975454E1,8.858917E1,1.06592766E2,1.4400217E2,1.9310774E2,-5.6395473E1,1.3145607E2,5.459963E1,4.9339638E1,7.2170725E0,1.3613187E2,-1.04921745E2,3.2405222E2,1.1762278E2,5.5876026E1,-5.317005E1,-2.5109192E2,-6.0061035E1,6.957639E1,3.0958902E2,2.5618763E1,-2.5717802E1,9.811621E1,-7.680074E1,-1.3505907E2,-3.062102E2,1.9909264E2,-1.1366033E2,-2.7903976E2,-1.1343345E2,-1.5492297E2,-2.3708992E2,-1.0563546E2,-2.4244473E2],"split_indices":[0,1,1,0,0,0,0,1,1,1,0,1,1,1,0,0,0,0,0,1,0,1,1,0,0,0,0,0,0,1,1,0,0,0,0,0,0,0,0,0,0,0,0,0,0,0,0,0,0,0,0,0,0,0,0,0,0,0,0,0,0,0,0],"split_type":[0,0,0,0,0,0,0,0,0,0,0,0,0,0,0,0,0,0,0,0,0,0,0,0,0,0,0,0,0,0,0,0,0,0,0,0,0,0,0,0,0,0,0,0,0,0,0,0,0,0,0,0,0,0,0,0,0,0,0,0,0,0,0],"sum_hessian":[1E4,5.674E3,4.326E3,4.562E3,1.112E3,2.707E3,1.619E3,1.858E3,2.704E3,1.29E2,9.83E2,1.721E3,9.86E2,8.47E2,7.72E2,1.688E3,1.7E2,9.25E2,1.779E3,5.6E1,7.3E1,8.07E2,1.76E2,2.2E1,1.699E3,2.92E2,6.94E2,1.51E2,6.96E2,4.73E2,2.99E2,9.92E2,6.96E2,8.4E1,8.6E1,6.01E2,3.24E2,5.03E2,1.276E3,5.4E1,2E0,6.9E1,4E0,2.66E2,5.41E2,7.6E1,1E2,8E0,1.4E1,8.97E2,8.02E2,9.7E1,1.95E2,6.44E2,5E1,3.1E1,1.2E2,1.2E1,6.84E2,3.73E2,1E2,1.8E1,2.81E2],"tree_param":{"num_deleted":"0","num_feature":"2","num_nodes":"63","size_leaf_vector":"1"}},{"base_weights":[-1.5458118E0,3.486863E2,-1.099441E3,7.0860254E2,-7.1384125E1,-1.3939598E2,-1.5078165E3,1.01582983E3,4.2041388E2,1.22027756E2,-1.1775186E3,2.4374857E1,-2.4954272E3,-1.2524802E3,-1.9642648E3,7.7954803E2,1.1039136E3,8.940074E2,3.1451138E1,1.1312657E3,-7.515662E0,-9.242634E2,-1.6904718E3,7.535133E2,-3.165738E2,-1.6853624E3,-3.9595925E3,-9.8847284E2,-1.6193378E3,-1.7940519E3,-2.3843147E3,9.2834595E1,1.8944393E1,1.4145767E2,9.45637E1,1.414512E2,3.4924515E1,-3.1131636E1,3.248098E1,1.8503519E2,4.8579327E1,2.8079268E1,-1.4253589E1,-1.27297424E2,-4.3736298E1,-1.7857997E2,-4.938799E1,1.2908165E1,1.643106E2,1.7624199E2,-4.6502804E1,2.0680664E2,-1.8731526E2,-2.424867E2,-4.4367526E2,-1.0439815E2,2.1129398E1,-1.568154E2,-2.3171353E2,-1.6191862E2,-2.0581409E2,-3.3643738E2,-2.2406184E2],"categories":[],"categories_nodes":[],"categories_segments":[],"categories_sizes":[],"default_left":[0,0,0,0,0,0,0,0,0,0,0,0,0,0,0,0,0,0,0,0,0,0,0,0,0,0,0,0,0,0,0,0,0,0,0,0,0,0,0,0,0,0,0,0,0,0,0,0,0,0,0,0,0,0,0,0,0,0,0,0,0,0,0],"id":24,"left_children":[1,3,5,7,9,11,13,15,17,19,21,23,25,27,29,31,33,35,37,39,41,43,45,47,49,51,53,55,57,59,61,-1,-1,-1,-1,-1,-1,-1,-1,-1,-1,-1,-1,-1,-1,-1,-1,-1,-1,-1,-1,-1,-1,-1,-1,-1,-1,-1,-1,-1,-1,-1,-1],"loss_changes":[3.8459497E9,1.1465256E9,9.481802E8,3.6116787E8,7.4893203E8,2.7902982E8,1.953216E8,4.0265216E7,3.884712E8,3.8961414E8,6.611968E7,1.6853992E8,4.907187E7,1.0406592E8,3.9121664E7,4.723949E7,6.932058E7,2.6916326E8,1.1664296E8,1.5644803E8,1.0288637E8,5.9038624E7,1.8623744E7,1.1977369E8,1.4340914E8,2.642924E7,9.584E5,4.2643136E7,1.2617088E7,1.680192E7,1.6684544E7,0E0,0E0,0E0,0E0,0E0,0E0,0E0,0E0,0E0,0E0,0E0,0E0,0E0,0E0,0E0,0E0,0E0,0E0,0E0,0E0,0E0,0E0,0E0,0E0,0E0,0E0,0E0,0E0,0E0,0E0,0E0,0E0],"parents":[2147483647,0,0,1,1,2,2,3,3,4,4,5,5,6,6,7,7,8,8,9,9,10,10,11,11,12,12,13,13,14,14,15,15,16,16,17,17,18,18,19,19,20,20,21,21,22,22,23,23,24,24,25,25,26,26,27,27,28,28,29,29,30,30],"right_children":[2,4,6,8,10,12,14,16,18,20,22,24,26,28,30,32,34,36,38,40,42,44,46,48,50,52,54,56,58,60,62,-1,-1,-1,-1,-1,-1,-1,-1,-1,-1,-1,-1,-1,-1,-1,-1,-1,-1,-1,-1,-1,-1,-1,-1,-1,-1,-1,-1,-1,-1,-1,-1],"split_conditions":[1.377287E2,1.0067166E2,7.983232E1,8.473254E1,9.554183E1,1.9575777E2,1.6491394E2,7.44155E1,7.414669E1,7.187087E1,1.2441475E2,1.4812704E2,2.1568048E2,9.0903625E1,1.9009709E2,7.321059E1,7.849458E1,9.2203575E1,9.100117E1,1.1735338E2,1.11940865E2,1.13445755E2,1.3692726E2,7.6252235E1,6.488019E1,6.406303E1,6.620533E1,9.035857E1,1.6187978E2,9.035857E1,8.2772514E1,9.2834595E1,1.8944393E1,1.4145767E2,9.45637E1,1.414512E2,3.4924515E1,-3.1131636E1,3.248098E1,1.8503519E2,4.8579327E1,2.8079268E1,-1.4253589E1,-1.27297424E2,-4.3736298E1,-1.7857997E2,-4.938799E1,1.2908165E1,1.643106E2,1.7624199E2,-4.6502804E1,2.0680664E2,-1.8731526E2,-2.424867E2,-4.4367526E2,-1.0439815E2,2.1129398E1,-1.568154E2,-2.3171353E2,-1.6191862E2,-2.0581409E2,-3.3643738E2,-2.2406184E2],"split_indices":[0,0,1,1,1,0,0,1,0,1,0,0,0,1,0,1,1,1,1,0,0,0,0,1,1,1,1,1,0,1,1,0,0,0,0,0,0,0,0,0,0,0,0,0,0,0,0,0,0,0,0,0,0,0,0,0,0,0,0,0,0,0,0],"split_type":[0,0,0,0,0,0,0,0,0,0,0,0,0,0,0,0,0,0,0,0,0,0,0,0,0,0,0,0,0,0,0,0,0,0,0,0,0,0,0,0,0,0,0,0,0,0,0,0,0,0,0,0,0,0,0,0,0,0,0,0,0,0,0],"sum_hessian":[1E4,7.582E3,2.418E3,4.083E3,3.499E3,7.22E2,1.696E3,1.975E3,2.108E3,2.979E3,5.2E2,6.76E2,4.6E1,1.09E3,6.06E2,5.39E2,1.436E3,9.5E2,1.158E3,3.38E2,2.641E3,3.5E2,1.7E2,2.15E2,4.61E2,3.1E1,1.5E1,6.36E2,4.54E2,4.35E2,1.71E2,4.3E2,1.09E2,4.82E2,9.54E2,4.85E2,4.65E2,5.34E2,6.24E2,1.59E2,1.79E2,8.42E2,1.799E3,2.03E2,1.47E2,1.57E2,1.3E1,1.27E2,8.8E1,3E1,4.31E2,1E0,3E1,5E0,1E1,6.08E2,2.8E1,4.26E2,2.8E1,2.66E2,1.69E2,1.9E1,1.52E2],"tree_param":{"num_deleted":"0","num_feature":"2","num_nodes":"63","size_leaf_vector":"1"}},{"base_weights":[-1.5298563E0,3.138669E2,-9.902244E2,6.378708E2,-6.428902E1,-1.25954254E2,-1.3578597E3,9.319488E2,3.9320096E2,9.649587E1,-1.1542677E3,3.4065304E0,-2.5946838E3,-1.1348707E3,-1.7831139E3,7.0179895E2,1.0257502E3,7.429029E2,2.7111908E1,8.9705334E2,-4.0191723E1,-8.405106E2,-1.5791958E3,6.7898254E2,-3.0510895E2,-1.7002059E3,-3.6065186E3,-2.8690778E2,-1.227305E3,-1.6973445E3,-2.487844E3,8.357254E1,1.7067085E1,1.2734125E2,8.809164E1,1.2058868E2,2.9300673E1,-2.6243628E1,3.867619E1,1.7456004E2,3.1947626E1,3.5310055E1,-1.12899475E1,-1.2740486E2,8.818307E0,-8.910591E1,-1.882318E2,1.1627449E1,1.4806415E2,1.5752415E2,-4.4055264E1,1.9646631E2,-1.9816826E2,-2.222795E2,-4.0334116E2,3.532993E2,-1.01532585E2,-2.629146E2,-1.1770585E2,-2.3466988E2,-1.5848468E2,-3.0739283E1,-2.5190616E2],"categories":[],"categories_nodes":[],"categories_segments":[],"categories_sizes":[],"default_left":[0,0,0,0,0,0,0,0,0,0,0,0,0,0,0,0,0,0,0,0,0,0,0,0,0,0,0,0,0,0,0,0,0,0,0,0,0,0,0,0,0,0,0,0,0,0,0,0,0,0,0,0,0,0,0,0,0,0,0,0,0,0,0],"id":25,"left_children":[1,3,5,7,9,11,13,15,17,19,21,23,25,27,29,31,33,35,37,39,41,43,45,47,49,51,53,55,57,59,61,-1,-1,-1,-1,-1,-1,-1,-1,-1,-1,-1,-1,-1,-1,-1,-1,-1,-1,-1,-1,-1,-1,-1,-1,-1,-1,-1,-1,-1,-1,-1,-1],"loss_changes":[3.1189335E9,9.291404E8,7.684329E8,2.9348557E8,6.1349376E8,2.309038E8,1.5889792E8,3.930496E7,2.8559706E8,3.3389565E8,5.8668544E7,1.4360403E8,2.645048E7,8.712102E7,3.0955904E7,3.826869E7,4.6047104E7,2.3731085E8,1.1371389E8,2.1753738E8,7.458806E7,1.0519725E8,3.795472E7,9.726542E7,1.2115837E8,2.5556404E7,4.85792E5,3.1244294E8,6.776576E7,3.441331E7,3.377856E6,0E0,0E0,0E0,0E0,0E0,0E0,0E0,0E0,0E0,0E0,0E0,0E0,0E0,0E0,0E0,0E0,0E0,0E0,0E0,0E0,0E0,0E0,0E0,0E0,0E0,0E0,0E0,0E0,0E0,0E0,0E0,0E0],"parents":[2147483647,0,0,1,1,2,2,3,3,4,4,5,5,6,6,7,7,8,8,9,9,10,10,11,11,12,12,13,13,14,14,15,15,16,16,17,17,18,18,19,19,20,20,21,21,22,22,23,23,24,24,25,25,26,26,27,27,28,28,29,29,30,30],"right_children":[2,4,6,8,10,12,14,16,18,20,22,24,26,28,30,32,34,36,38,40,42,44,46,48,50,52,54,56,58,60,62,-1,-1,-1,-1,-1,-1,-1,-1,-1,-1,-1,-1,-1,-1,-1,-1,-1,-1,-1,-1,-1,-1,-1,-1,-1,-1,-1,-1,-1,-1,-1,-1],"split_conditions":[1.377287E2,1.0067166E2,7.983232E1,8.397733E1,9.654235E1,2.0082771E2,1.6573817E2,7.44155E1,7.743387E1,7.360714E1,1.21198746E2,1.4812704E2,2.1568048E2,8.188293E1,2.0675111E2,7.321059E1,7.849458E1,9.162307E1,9.187764E1,1.1434239E2,1.06282234E2,1.13445755E2,9.846104E1,7.6252235E1,6.488019E1,6.406303E1,6.620533E1,1.4083E2,8.2378365E1,8.2772514E1,8.0246765E1,8.357254E1,1.7067085E1,1.2734125E2,8.809164E1,1.2058868E2,2.9300673E1,-2.6243628E1,3.867619E1,1.7456004E2,3.1947626E1,3.5310055E1,-1.12899475E1,-1.2740486E2,8.818307E0,-8.910591E1,-1.882318E2,1.1627449E1,1.4806415E2,1.5752415E2,-4.4055264E1,1.9646631E2,-1.9816826E2,-2.222795E2,-4.0334116E2,3.532993E2,-1.01532585E2,-2.629146E2,-1.1770585E2,-2.3466988E2,-1.5848468E2,-3.0739283E1,-2.5190616E2],"split_indices":[0,0,1,1,1,0,0,1,0,1,0,0,0,1,0,1,1,1,1,0,0,0,1,1,1,1,1,0,1,1,1,0,0,0,0,0,0,0,0,0,0,0,0,0,0,0,0,0,0,0,0,0,0,0,0,0,0,0,0,0,0,0,0],"split_type":[0,0,0,0,0,0,0,0,0,0,0,0,0,0,0,0,0,0,0,0,0,0,0,0,0,0,0,0,0,0,0,0,0,0,0,0,0,0,0,0,0,0,0,0,0,0,0,0,0,0,0,0,0,0,0,0,0,0,0,0,0,0,0],"sum_hessian":[1E4,7.582E3,2.418E3,4.083E3,3.499E3,7.22E2,1.696E3,1.853E3,2.23E3,3.05E3,4.49E2,6.87E2,3.5E1,1.115E3,5.81E2,5.39E2,1.314E3,1.14E3,1.09E3,4.44E2,2.606E3,2.6E2,1.89E2,2.15E2,4.72E2,2E1,1.5E1,1.1E2,1.005E3,5.21E2,6E1,4.3E2,1.09E2,4.82E2,8.32E2,5.61E2,5.79E2,6.04E2,4.86E2,1.79E2,2.65E2,4.06E2,2.2E3,1.77E2,8.3E1,5.9E1,1.3E2,1.27E2,8.8E1,3.1E1,4.41E2,1E0,1.9E1,5E0,1E1,1.7E1,9.3E1,3.3E1,9.72E2,7.4E1,4.47E2,1E0,5.9E1],"tree_param":{"num_deleted":"0","num_feature":"2","num_nodes":"63","size_leaf_vector":"1"}},{"base_weights":[-1.4615567E0,2.8252136E2,-8.91681E2,5.742011E2,-5.7907967E1,-1.1384884E2,-1.2225479E3,8.242303E2,3.396673E2,1.4383913E2,-7.817948E2,1.5659816E2,-1.0978235E3,-1.0144807E3,-1.5945062E3,-2.470964E2,8.391984E2,7.324203E2,1.7106672E1,1.3330079E3,7.000785E1,-4.0966522E2,-1.0397212E3,2.7235876E3,1.0101383E2,-8.418509E2,-3.284968E3,-7.797955E2,-1.3408104E3,-1.4490011E3,-1.9540743E3,2.9813965E2,-4.7709232E1,7.085877E1,9.19253E1,1.10976845E2,2.2314812E1,-2.6777119E1,2.6093475E1,-1.1946261E2,1.4392445E2,2.838394E1,-9.985698E0,2.2308194E2,-8.14393E1,-2.9651328E2,-9.710953E1,3.5875644E2,1.593952E2,6.7106895E1,-1.2441047E1,2.4650931E2,-1.032998E2,-2.0375621E2,-3.666738E2,-8.301501E1,3.0453995E1,-1.5488701E2,-1.2027694E2,-1.2854022E2,-1.6974242E2,-2.8285712E2,-1.8269893E2],"categories":[],"categories_nodes":[],"categories_segments":[],"categories_sizes":[],"default_left":[0,0,0,0,0,0,0,0,0,0,0,0,0,0,0,0,0,0,0,0,0,0,0,0,0,0,0,0,0,0,0,0,0,0,0,0,0,0,0,0,0,0,0,0,0,0,0,0,0,0,0,0,0,0,0,0,0,0,0,0,0,0,0],"id":26,"left_children":[1,3,5,7,9,11,13,15,17,19,21,23,25,27,29,31,33,35,37,39,41,43,45,47,49,51,53,55,57,59,61,-1,-1,-1,-1,-1,-1,-1,-1,-1,-1,-1,-1,-1,-1,-1,-1,-1,-1,-1,-1,-1,-1,-1,-1,-1,-1,-1,-1,-1,-1,-1,-1],"loss_changes":[2.528576E9,7.5299744E8,6.224119E8,2.3920704E8,5.1125965E8,1.9257162E8,1.2971725E8,3.1894016E7,2.6716958E8,2.4029715E8,7.280842E7,8.076961E7,8.457101E7,8.250842E7,2.892608E7,2.2213526E7,1.9727232E7,1.8250886E8,8.057542E7,4.468371E7,9.370397E7,3.373815E8,5.658045E7,5.993344E6,7.166037E7,9.16743E7,1.48336E5,3.503379E7,1.1205056E7,1.553792E7,1.3947584E7,0E0,0E0,0E0,0E0,0E0,0E0,0E0,0E0,0E0,0E0,0E0,0E0,0E0,0E0,0E0,0E0,0E0,0E0,0E0,0E0,0E0,0E0,0E0,0E0,0E0,0E0,0E0,0E0,0E0,0E0,0E0,0E0],"parents":[2147483647,0,0,1,1,2,2,3,3,4,4,5,5,6,6,7,7,8,8,9,9,10,10,11,11,12,12,13,13,14,14,15,15,16,16,17,17,18,18,19,19,20,20,21,21,22,22,23,23,24,24,25,25,26,26,27,27,28,28,29,29,30,30],"right_children":[2,4,6,8,10,12,14,16,18,20,22,24,26,28,30,32,34,36,38,40,42,44,46,48,50,52,54,56,58,60,62,-1,-1,-1,-1,-1,-1,-1,-1,-1,-1,-1,-1,-1,-1,-1,-1,-1,-1,-1,-1,-1,-1,-1,-1,-1,-1,-1,-1,-1,-1,-1,-1],"split_conditions":[1.377287E2,1.0067166E2,7.983232E1,8.473254E1,9.2838234E1,1.7548329E2,1.6491394E2,6.0138336E1,7.414669E1,6.817933E1,9.654235E1,6.0138336E1,2.1568048E2,9.0903625E1,1.9009709E2,2.0022701E1,7.6706795E1,9.3290985E1,9.100117E1,1.0215627E2,1.1646794E2,1.0583963E2,1.0215627E2,1.4676617E2,1.4486098E2,6.406303E1,6.620533E1,9.035857E1,9.467523E1,9.035857E1,8.2772514E1,2.9813965E2,-4.7709232E1,7.085877E1,9.19253E1,1.10976845E2,2.2314812E1,-2.6777119E1,2.6093475E1,-1.1946261E2,1.4392445E2,2.838394E1,-9.985698E0,2.2308194E2,-8.14393E1,-2.9651328E2,-9.710953E1,3.5875644E2,1.593952E2,6.7106895E1,-1.2441047E1,2.4650931E2,-1.032998E2,-2.0375621E2,-3.666738E2,-8.301501E1,3.0453995E1,-1.5488701E2,-1.2027694E2,-1.2854022E2,-1.6974242E2,-2.8285712E2,-1.8269893E2],"split_indices":[0,0,1,1,1,0,0,1,0,1,1,1,0,1,0,0,1,1,1,0,0,0,0,0,0,1,1,1,1,1,1,0,0,0,0,0,0,0,0,0,0,0,0,0,0,0,0,0,0,0,0,0,0,0,0,0,0,0,0,0,0,0,0],"split_type":[0,0,0,0,0,0,0,0,0,0,0,0,0,0,0,0,0,0,0,0,0,0,0,0,0,0,0,0,0,0,0,0,0,0,0,0,0,0,0,0,0,0,0,0,0,0,0,0,0,0,0,0,0,0,0,0,0,0,0,0,0,0,0],"sum_hessian":[1E4,7.582E3,2.418E3,4.083E3,3.499E3,7.22E2,1.696E3,1.975E3,2.108E3,2.737E3,7.62E2,5.67E2,1.55E2,1.09E3,6.06E2,2.7E1,1.948E3,9.5E2,1.158E3,1.59E2,